%YAML:1.0
---
opencv_ml_svm:
   format: 3
   svmType: C_SVC
   kernel:
      type: LINEAR
   C: 2.6699999999999999e+00
   term_criteria: { epsilon:1.1920928955078125e-07, iterations:1000 }
   var_count: 1500
   class_count: 3
   class_labels: !!opencv-matrix
      rows: 3
      cols: 1
      dt: i
      data: [ 3, 4, 5 ]
   sv_total: 3
   support_vectors:
      - [ 0., -1.27085323e-05, -1.41514229e-05, -3.27425073e-06,
          3.55172961e-06, 1.29860109e-05, 1.16541128e-06, 0., 0.,
          5.54957751e-08, 0., 0., 0., 0., 0., 0., 0., 0., 0., 0., 0., 0.,
          0., -6.10453526e-06, -1.41514229e-05, -9.93374397e-06, 0., 0.,
          0., 0., 0., -1.27085323e-05, -7.60292096e-06, -5.54957751e-08,
          8.82382847e-06, 1.38739433e-05, 1.14321292e-05, 1.11546506e-05,
          1.11546506e-05, 1.11546506e-05, 1.11546506e-05, 1.11546506e-05,
          1.11546506e-05, 1.11546506e-05, 1.11546506e-05, 1.11546506e-05,
          1.11546506e-05, 1.11546506e-05, 1.11546506e-05, 1.11546506e-05,
          1.11546506e-05, 1.11546506e-05, 5.99354371e-06,
          -8.32436626e-07, -2.99677185e-06, -1.83136058e-06,
          3.21875496e-06, 6.54850146e-06, 0., 0., 0., -1.27085323e-05,
          -5.88255216e-06, 0., 4.49515755e-06, 1.13211381e-05,
          1.41514229e-05, 1.41514229e-05, 1.41514229e-05, 1.41514229e-05,
          1.41514229e-05, 1.41514229e-05, 1.41514229e-05, 1.41514229e-05,
          1.41514229e-05, 1.41514229e-05, 1.41514229e-05, 1.41514229e-05,
          1.41514229e-05, 1.41514229e-05, 1.41514229e-05, 9.76725642e-06,
          3.16325918e-06, 0., 0., 0., 3.32974651e-06, 8.26887026e-06, 0.,
          0., 0., -1.27085323e-05, -5.88255216e-06, 0., 0.,
          5.66056906e-06, 1.18760954e-05, 1.41514229e-05, 1.41514229e-05,
          1.41514229e-05, 1.41514229e-05, 1.41514229e-05, 1.41514229e-05,
          1.41514229e-05, 1.41514229e-05, 1.41514229e-05, 1.41514229e-05,
          1.41514229e-05, 1.41514229e-05, 1.41514229e-05, 1.08216764e-05,
          3.88470426e-06, -5.54957751e-08, 0., 0., 0., 3.32974651e-06,
          1.12656426e-05, 5.38308996e-06, 0., 0., -1.27085323e-05,
          -8.93481956e-06, -3.05226763e-06, 0., 0., 8.04688716e-06,
          1.41514229e-05, 1.41514229e-05, 1.41514229e-05, 1.41514229e-05,
          1.41514229e-05, 1.40959264e-05, 1.41514229e-05, 1.41514229e-05,
          1.41514229e-05, 1.41514229e-05, 1.41514229e-05, 1.41514229e-05,
          1.41514229e-05, 5.21660286e-06, 0., 0., 0., 0., 0.,
          3.32974651e-06, 1.41514229e-05, 1.18760954e-05, 5.21660286e-06,
          0., -1.27085323e-05, -1.41514229e-05, -8.26887026e-06, 0., 0.,
          8.04688716e-06, 1.41514229e-05, 1.41514229e-05, 1.41514229e-05,
          1.41514229e-05, 1.41514229e-05, 1.41514229e-05, 1.41514229e-05,
          1.41514229e-05, 1.41514229e-05, 1.41514229e-05, 1.41514229e-05,
          1.41514229e-05, 1.40959264e-05, 5.16110686e-06, 0., 0., 0., 0.,
          0., 3.32974651e-06, 1.41514229e-05, 1.40959264e-05,
          1.41514229e-05, 0., -1.27085323e-05, -1.41514229e-05,
          -8.26887026e-06, -3.32974651e-07, -1.27640283e-06,
          6.77048456e-06, 1.38184478e-05, 1.41514229e-05, 1.41514229e-05,
          1.41514229e-05, 1.41514229e-05, 1.41514229e-05, 1.41514229e-05,
          1.34299771e-05, 1.28750198e-05, 1.28750198e-05, 1.28750198e-05,
          1.28750198e-05, 1.28750198e-05, 3.88470426e-06,
          -1.27640283e-06, -9.43428176e-07, 0., 0., 0., 3.32974651e-06,
          1.41514229e-05, 1.41514229e-05, 1.41514229e-05,
          -9.21229821e-06, -1.36519602e-05, -1.41514229e-05,
          -8.26887026e-06, -3.38524228e-06, -1.34299771e-05,
          -5.38308996e-06, 1.07661799e-05, 1.41514229e-05,
          1.41514229e-05, 1.41514229e-05, 1.41514229e-05, 1.41514229e-05,
          1.41514229e-05, 6.27102236e-06, 7.21445076e-07, 7.21445076e-07,
          7.21445076e-07, 7.21445076e-07, 7.21445076e-07,
          -8.21337471e-06, -1.34299771e-05, -1.01002306e-05, 0., 0., 0.,
          3.32974651e-06, 1.41514229e-05, 1.41514229e-05, 1.41514229e-05,
          -1.41514229e-05, -1.41514229e-05, -1.41514229e-05,
          -1.30415074e-05, -1.21535750e-05, -1.41514229e-05,
          -6.10453526e-06, 1.99784790e-06, 2.66379720e-06,
          2.66379720e-06, 2.66379720e-06, 2.66379720e-06, 2.66379720e-06,
          2.66379720e-06, 1.10991550e-06, 0., 0., 0., 0.,
          -4.66164511e-06, -1.13766337e-05, -1.41514229e-05,
          -1.05996933e-05, 0., 0., 0., 3.32974651e-06, 1.41514229e-05,
          1.41514229e-05, 1.41514229e-05, -1.41514229e-05,
          -1.41514229e-05, -1.41514229e-05, -1.41514229e-05,
          -1.41514229e-05, -1.41514229e-05, -6.10453526e-06, 0., 0., 0.,
          0., 0., 0., 0., 0., 0., 0., 0., 0., -9.93374397e-06,
          -1.41514229e-05, -1.41514229e-05, -1.05996933e-05, 0., 0.,
          1.22090705e-06, 6.43750991e-06, 1.41514229e-05, 1.41514229e-05,
          1.41514229e-05, -1.41514229e-05, -1.41514229e-05,
          -1.41514229e-05, -1.41514229e-05, -1.41514229e-05,
          -1.41514229e-05, -6.10453526e-06, 0., 0., 0., 0., 0., 0., 0.,
          0., 0., 0., 0., 0., -9.87824751e-06, -1.41514229e-05,
          -1.41514229e-05, -1.05996933e-05, 0., 0., 4.27317445e-06,
          1.41514229e-05, 1.41514229e-05, 1.22645661e-05, 6.65949301e-06,
          -1.41514229e-05, -1.41514229e-05, -1.41514229e-05,
          -1.41514229e-05, -1.41514229e-05, -1.41514229e-05,
          -6.10453526e-06, 0., 0., 0., 0., 0., 0., 0., 0., 0., 0., 0.,
          0., -9.87824751e-06, -1.41514229e-05, -1.41514229e-05,
          -1.05996933e-05, 0., 0., 4.27317445e-06, 1.41514229e-05,
          1.41514229e-05, 1.05996933e-05, 0., -1.41514229e-05,
          -1.41514229e-05, -1.41514229e-05, -1.41514229e-05,
          -1.41514229e-05, -1.41514229e-05, -6.10453526e-06, 0., 0., 0.,
          0., 0., 0., 0., 0., 0., 0., 0., 0., -9.87824751e-06,
          -1.41514229e-05, -1.41514229e-05, -1.05996933e-05, 0., 0.,
          4.27317445e-06, 1.41514229e-05, 1.41514229e-05, 1.05996933e-05,
          0., -1.41514229e-05, -1.41514229e-05, -1.41514229e-05,
          -1.41514229e-05, -1.41514229e-05, -1.41514229e-05,
          -6.10453526e-06, 0., 0., 0., 0., 0., 0., 0., 0., 0., 0., 0.,
          0., -9.87824751e-06, -1.41514229e-05, -1.41514229e-05,
          -1.05996933e-05, 5.54957751e-08, 0., 4.27317445e-06,
          1.41514229e-05, 1.41514229e-05, 1.05996933e-05, 0.,
          -1.41514229e-05, -1.41514229e-05, -1.41514229e-05,
          -1.41514229e-05, -1.41514229e-05, -1.06551888e-05,
          -3.71821693e-06, 0., 0., 0., 0., 0., 0., 0., 0., 0., 0., 0.,
          0., -9.87824751e-06, -1.41514229e-05, -1.41514229e-05,
          -1.05441968e-05, 5.54957751e-08, 0., 4.27317445e-06,
          1.41514229e-05, 1.41514229e-05, 1.05996933e-05, 0.,
          -1.41514229e-05, -1.41514229e-05, -1.41514229e-05,
          -1.41514229e-05, -1.41514229e-05, -5.16110686e-06, 0., 0., 0.,
          0., 0., 0., 0., 0., 0., 0., 0., 0., 0., -9.87824751e-06,
          -1.41514229e-05, -1.41514229e-05, -1.05996933e-05, 0., 0.,
          4.27317445e-06, 1.40959264e-05, 1.40959264e-05, 1.05996933e-05,
          0., -1.41514229e-05, -1.41514229e-05, -1.41514229e-05,
          -1.41514229e-05, -1.41514229e-05, -5.16110686e-06, 0., 0., 0.,
          0., 0., 0., 0., 0., 0., 0., 0., 0., 0., -9.87824751e-06,
          -1.41514229e-05, -1.41514229e-05, -1.05996933e-05, 0., 0.,
          4.27317445e-06, 1.41514229e-05, 1.41514229e-05, 1.05996933e-05,
          0., -1.41514229e-05, -1.41514229e-05, -1.41514229e-05,
          -1.41514229e-05, -1.41514229e-05, -5.16110686e-06, 0., 0., 0.,
          0., 0., 0., 0., 0., 0., 0., 0., 0., 0., -9.93374397e-06,
          -1.41514229e-05, -1.09326675e-05, -4.77263666e-06, 0., 0.,
          4.21767891e-06, 1.41514229e-05, 1.41514229e-05, 1.05996933e-05,
          0., -1.41514229e-05, -1.41514229e-05, -1.41514229e-05,
          -1.41514229e-05, -1.41514229e-05, -5.16110686e-06, 0., 0., 0.,
          0., 0., 0., 0., 0., 0., 0., 0., 0., 0., -3.27425073e-06,
          -1.06551888e-05, -8.26887026e-06, 0., 0., 0., 4.27317445e-06,
          1.41514229e-05, 1.41514229e-05, 1.05996933e-05, 0.,
          -1.41514229e-05, -1.41514229e-05, -1.41514229e-05,
          -1.41514229e-05, -1.41514229e-05, -9.60076886e-06,
          -6.93697166e-06, -6.93697166e-06, -6.93697166e-06,
          -6.93697166e-06, -6.93697166e-06, -6.93697166e-06,
          -6.93697166e-06, -6.93697166e-06, -6.93697166e-06,
          -6.93697166e-06, -6.93697166e-06, -6.93697166e-06,
          -6.93697166e-06, -2.05334368e-06, -8.93481956e-06,
          -8.26887026e-06, 0., 0., 0., 4.21767891e-06, 1.41514229e-05,
          1.25420447e-05, 7.76940851e-06, 0., -1.41514229e-05,
          -1.41514229e-05, -1.41514229e-05, -1.41514229e-05,
          -1.41514229e-05, -1.41514229e-05, -1.41514229e-05,
          -1.41514229e-05, -1.41514229e-05, -1.41514229e-05,
          -1.41514229e-05, -1.41514229e-05, -1.41514229e-05,
          -1.41514229e-05, -1.41514229e-05, -1.41514229e-05,
          -1.41514229e-05, -1.41514229e-05, -1.41514229e-05,
          -7.32544231e-06, -1.05441968e-05, -9.04581157e-06,
          -1.38739438e-06, 0., 1.60937748e-06, 7.32544231e-06,
          1.41514229e-05, 8.26887026e-06, 0., 0., -1.23200616e-05,
          -1.39849353e-05, -1.41514229e-05, -1.41514229e-05,
          -1.41514229e-05, -1.41514229e-05, -1.41514229e-05,
          -1.41514229e-05, -1.41514229e-05, -1.41514229e-05,
          -1.41514229e-05, -1.41514229e-05, -1.41514229e-05,
          -1.41514229e-05, -1.41514229e-05, -1.41514229e-05,
          -1.41514229e-05, -1.41514229e-05, -1.41514229e-05,
          -1.41514229e-05, -1.41514229e-05, -1.40959264e-05,
          -1.05441968e-05, 7.76940851e-07, 6.32651836e-06,
          1.41514229e-05, 1.41514229e-05, 8.26887026e-06, 0., 0.,
          -7.21445076e-07, -1.28195243e-05, -1.41514229e-05,
          -9.15680266e-06, -2.10883945e-06, -2.10883945e-06,
          -2.10883945e-06, -2.10883945e-06, -2.10883945e-06,
          -2.10883945e-06, -2.10883945e-06, -2.10883945e-06,
          -2.10883945e-06, -2.10883945e-06, -2.10883945e-06,
          -2.10883945e-06, -2.10883945e-06, -2.10883945e-06,
          -2.10883945e-06, -2.10883945e-06, -2.10883945e-06,
          -7.15895476e-06, -1.35964647e-05, -6.21552681e-06,
          1.66487325e-06, 1.11546506e-05, 1.41514229e-05, 8.26887026e-06,
          0., 0., 0., -5.16110686e-06, -4.10668736e-06, -2.38631833e-06,
          0., 0., 0., 0., 0., 0., 0., 0., 0., 0., 0., 0., 0., 0., 0., 0.,
          0., -1.72036903e-06, -4.10668736e-06, 2.05334368e-06,
          1.00447351e-05, 1.30970029e-05, 1.41514229e-05, 8.26887026e-06,
          0., 0., 0., 5.38308996e-06, 1.38739438e-06, 0., 0., 0., 0., 0.,
          0., 0., 0., 0., 0., 0., 0., 0., 0., 0., 0., 0., 0., 0., 0.,
          2.49730988e-06, 8.87932401e-06, 8.10238271e-06, 6.10453526e-06,
          3.55172961e-06, 0., 0., 0., 1.05996933e-05, 7.21445076e-06,
          5.82705616e-06, 1.77586480e-06, 0., 0., 0., 0., 0., 0., 0., 0.,
          0., 0., 0., 0., 0., 0., 0., 0., 0., 0., 0., 5.21660286e-06,
          8.10238271e-06, 2.55280565e-06, 0., 0., 0., 0., 7.54742541e-06,
          1.24310536e-05, 1.41514229e-05, 6.54850146e-06, 3.27425073e-06,
          3.27425073e-06, 3.27425073e-06, 3.27425073e-06, 3.27425073e-06,
          3.27425073e-06, 3.27425073e-06, 3.27425073e-06, 3.27425073e-06,
          3.27425073e-06, 3.27425073e-06, 3.27425073e-06, 3.27425073e-06,
          3.27425073e-06, 9.98923952e-07, 0., 0., 0., 0., 5.21660286e-06,
          1.41514229e-05, 8.26887026e-06, 2.38631833e-06, 0., 0., 0.,
          5.54957751e-08, 7.04796321e-06, 1.20425830e-05, 1.20425830e-05,
          1.20425830e-05, 1.20425830e-05, 1.20425830e-05, 1.20425830e-05,
          1.20425830e-05, 1.20425830e-05, 1.20425830e-05, 1.20425830e-05,
          1.20425830e-05, 1.20425830e-05, 1.20425830e-05, 1.20425830e-05,
          1.20425830e-05, 1.20425830e-05, 2.16433523e-06,
          -2.10883945e-06, -2.10883945e-06, -1.60937748e-06, 0.,
          5.21660286e-06, 1.41514229e-05, 1.41514229e-05, 8.26887026e-06,
          0., 0., 0., 0., 0., 0., 0., 0., 0., 0., 0., 0., 0., 0., 0., 0.,
          0., 0., 0., 0., 0., -9.87824751e-06, -1.41514229e-05,
          -1.40959264e-05, -1.05441968e-05, 0., 5.21660286e-06,
          1.41514229e-05, 1.41514229e-05, 8.26887026e-06, 0., 0., 0., 0.,
          0., 0., 0., 0., 0., 0., 0., 0., 0., 0., 0., 0., 0., 0., 0., 0.,
          -7.49192941e-06, -1.28195243e-05, -1.41514229e-05,
          -9.04581157e-06, -1.38739438e-06, 0., 5.21660286e-06,
          1.41514229e-05, 1.41514229e-05, 8.26887026e-06, 0., 0., 0., 0.,
          0., 0., 0., 0., 0., 0., 0., 0., 0., 0., 0., 0., 0., 0., 0., 0.,
          -1.08216764e-05, -1.41514229e-05, -8.10238271e-06,
          -2.21983100e-06, 0., -5.54957751e-08, 5.21660286e-06,
          1.41514229e-05, 1.41514229e-05, 8.26887026e-06, 0., 0., 0., 0.,
          0., 0., 0., 0., 0., 0., 0., 0., 0., 0., 0., 0., 0., 0., 0., 0.,
          -1.08216764e-05, -1.41514229e-05, -5.88255216e-06, 0., 0.,
          -5.54957751e-08, 5.21660286e-06, 1.41514229e-05,
          1.41514229e-05, 8.26887026e-06, 0., 0., 0., 0., 0., 0., 0., 0.,
          0., 0., 0., 0., 0., 0., 0., 0., 0., 0., 0., 0.,
          -1.08216764e-05, -1.41514229e-05, -5.88255216e-06, 0., 0., 0.,
          5.21660286e-06, 1.41514229e-05, 1.41514229e-05, 8.26887026e-06,
          0., 0., 0., 0., 0., 0., 0., 0., 0., 0., 0., 0., 0., 0., 0., 0.,
          0., 0., 0., 0., -1.08216764e-05, -1.41514229e-05,
          -5.93804771e-06, 0., 0., 0., 5.21660286e-06, 1.41514229e-05,
          1.41514229e-05, 8.26887026e-06, 0., 0., 0., 0., 0., 0., 0., 0.,
          0., 0., 0., 0., 0., 0., 0., 0., 0., 0., 0., 0.,
          -1.08216764e-05, -1.41514229e-05, -5.93804771e-06,
          -5.54957751e-08, 0., 0., 5.21660286e-06, 1.41514229e-05,
          1.41514229e-05, 8.26887026e-06, 0., 0., 0., 0., 0., 0., 0., 0.,
          0., 0., 0., 0., 0., 0., 0., 0., 0., 0., 0., 0.,
          -1.08216764e-05, -1.41514229e-05, -5.88255216e-06, 0., 0., 0.,
          5.21660286e-06, 1.41514229e-05, 1.41514229e-05, 8.26887026e-06,
          0., 0., 0., 0., 0., 0., 0., 0., 0., 0., 0., 0., 0., 0., 0., 0.,
          0., 0., 0., 0., -1.08216764e-05, -1.41514229e-05,
          -5.93804771e-06, -5.54957751e-08, 0., 0., 5.21660286e-06,
          1.41514229e-05, 1.40959264e-05, 8.21337471e-06, 0., 0., 0., 0.,
          0., 0., 0., 0., 0., 0., 0., 0., 0., 0., 0., 0., 0., 0., 0., 0.,
          -1.08216764e-05, -1.41514229e-05, -5.88255216e-06, 0., 0., 0.,
          5.16110686e-06, 1.41514229e-05, 1.41514229e-05, 8.26887026e-06,
          0., 0., 5.54957751e-08, 0., 0., 0., 0., 0., 0., 0., 0., 0., 0.,
          0., 0., 0., 0., 0., 0., 0., -1.08216764e-05, -1.41514229e-05,
          -5.88255216e-06, 0., 0., 0., 5.21660286e-06, 1.41514229e-05,
          1.41514229e-05, 8.26887026e-06, 0., 0., 5.54957751e-08, 0., 0.,
          0., 0., 0., 0., 0., 0., 0., 0., 0., 0., 0., 0., 0., 0., 0.,
          -1.08216764e-05, -1.41514229e-05, -5.88255216e-06, 0., 0., 0.,
          5.21660286e-06, 1.41514229e-05, 1.41514229e-05, 8.26887026e-06,
          0., -5.54957751e-08, 0., 0., 0., 0., 0., 0., 0., 0., 0., 0.,
          0., 0., 0., 0., 0., 0., 0., 0., -1.08216764e-05,
          -1.41514229e-05, -5.88255216e-06, 0., 0., 0., 5.21660286e-06,
          1.41514229e-05, 1.14321292e-05, 5.54957751e-06, 0., 0., 0., 0.,
          0., 0., 0., 0., 0., 0., 0., 0., 0., 0., 0., 0., 0., 0., 0., 0.,
          -1.08216764e-05, -1.41514229e-05, -5.88255216e-06,
          -5.54957751e-08, -5.54957751e-08, 3.27425073e-06,
          9.93374397e-06, 1.41514229e-05, 5.88255216e-06, 0., 0.,
          -5.54957751e-08, 0., 0., 0., 2.77478875e-07, 7.21445076e-07,
          7.21445076e-07, 7.21445076e-07, 7.21445076e-07, 7.21445076e-07,
          7.21445076e-07, 7.21445076e-07, 7.21445076e-07, 7.21445076e-07,
          7.21445076e-07, 7.21445076e-07, 7.21445076e-07, 7.21445076e-07,
          7.21445076e-07, -1.01002306e-05, -1.34299771e-05,
          -5.60507306e-06, 0., 0., 3.99569581e-06, 1.09881630e-05,
          1.41514229e-05, 5.88255216e-06, 0., 0., -5.54957751e-08, 0.,
          0., 0., 5.38308996e-06, 1.28750198e-05, 1.28750198e-05,
          1.28750198e-05, 1.28750198e-05, 1.28750198e-05, 1.28750198e-05,
          1.28750198e-05, 1.28750198e-05, 1.28750198e-05, 1.28750198e-05,
          1.28750198e-05, 1.28750198e-05, 1.28750198e-05, 1.28750198e-05,
          3.88470426e-06, -5.54957751e-07, -5.54957751e-07, 0., 0., 0.,
          4.32867046e-06, 1.17651043e-05, 3.49623383e-06,
          -2.38631833e-06, -2.16433523e-06, 0., 0., 0., 6.38201391e-06,
          1.22645661e-05, 1.41514229e-05, 1.41514229e-05, 1.41514229e-05,
          1.41514229e-05, 1.41514229e-05, 1.41514229e-05, 1.41514229e-05,
          1.41514229e-05, 1.41514229e-05, 1.41514229e-05, 1.41514229e-05,
          1.41514229e-05, 1.41514229e-05, 1.41514229e-05, 1.40404309e-05,
          4.21767891e-06, 0., 0., 0., 0., 5.54957751e-08, 5.54957751e-08,
          -8.15787917e-06, -1.40404309e-05, -1.25975412e-05, 0., 0.,
          6.65949301e-06, 1.19870874e-05, 1.41514229e-05, 1.41514229e-05,
          1.41514229e-05, 1.41514229e-05, 1.41514229e-05, 1.41514229e-05,
          1.41514229e-05, 1.41514229e-05, 1.41514229e-05, 1.41514229e-05,
          1.41514229e-05, 1.41514229e-05, 1.41514229e-05, 1.41514229e-05,
          1.41514229e-05, 1.41514229e-05, 1.22645661e-05, 1.14876257e-05,
          4.99461976e-06, 0., 0., 0., 0., -8.26887026e-06,
          -1.41514229e-05, -1.38739433e-05, -1.14876257e-05,
          6.93697166e-06, 1.23200616e-05, 1.41514229e-05, 1.41514229e-05,
          1.41514229e-05, 1.41514229e-05, 1.41514229e-05, 1.41514229e-05,
          1.41514229e-05, 1.41514229e-05, 1.41514229e-05, 1.41514229e-05,
          1.41514229e-05, 1.41514229e-05, 1.41514229e-05, 1.41514229e-05,
          1.41514229e-05, 1.41514229e-05, 1.41514229e-05, 1.41514229e-05,
          1.41514229e-05, 1.11546506e-05, 8.93481956e-06, 5.05011531e-06,
          0., 0., -8.26887026e-06, -1.41514229e-05, -1.41514229e-05,
          -1.41514229e-05, 1.41514229e-05, 1.41514229e-05,
          1.41514229e-05, 1.41514229e-05, 1.41514229e-05, 1.41514229e-05,
          1.41514229e-05, 1.41514229e-05, 1.41514229e-05, 1.41514229e-05,
          1.41514229e-05, 1.41514229e-05, 1.41514229e-05, 1.41514229e-05,
          1.41514229e-05, 1.41514229e-05, 1.41514229e-05, 1.41514229e-05,
          1.41514229e-05, 1.41514229e-05, 1.41514229e-05, 1.41514229e-05,
          1.41514229e-05, 1.03222137e-05, -4.99461976e-07,
          -4.93912376e-06, -1.03222137e-05, -1.41514229e-05,
          -1.41514229e-05, -1.41514229e-05, 1.41514229e-05,
          1.41514229e-05, 1.41514229e-05, 1.41514229e-05, 1.41514229e-05,
          1.41514229e-05, 1.41514229e-05, 1.41514229e-05, 1.41514229e-05,
          1.41514229e-05, 1.41514229e-05, 1.41514229e-05, 1.41514229e-05,
          1.41514229e-05, 1.41514229e-05, 1.41514229e-05, 1.41514229e-05,
          1.41514229e-05, 1.41514229e-05, 1.41514229e-05, 1.41514229e-05,
          1.41514229e-05, 1.41514229e-05, 1.29860109e-05,
          -2.60830143e-06, -1.14876257e-05, -1.41514229e-05,
          -1.41514229e-05, -1.37629522e-05, -1.03222137e-05,
          1.41514229e-05, 1.41514229e-05, 1.41514229e-05, 1.41514229e-05,
          1.41514229e-05, 1.41514229e-05, 1.41514229e-05, 1.41514229e-05,
          1.41514229e-05, 1.41514229e-05, 1.41514229e-05, 1.41514229e-05,
          1.41514229e-05, 1.41514229e-05, 1.41514229e-05, 1.41514229e-05,
          1.41514229e-05, 1.41514229e-05, 1.41514229e-05, 1.41514229e-05,
          1.41514229e-05, 1.41514229e-05, 1.41514229e-05, 1.29860109e-05,
          1.16541128e-06, -4.21767891e-06, -1.41514229e-05,
          -1.41514229e-05, -1.27085323e-05, 0. ]
      - [ 0., 0., 0., 0., 4.06816389e-06, 5.21559514e-07,
          -2.44089842e-05, -2.65995350e-05, -2.64952232e-05,
          -2.64952232e-05, -2.65995350e-05, -2.65995350e-05,
          -2.65995350e-05, -2.65995350e-05, -2.65995350e-05,
          -2.65995350e-05, -2.65995350e-05, -2.65995350e-05,
          -2.65995350e-05, -2.65995350e-05, -2.65995350e-05,
          -2.65995350e-05, -2.65995350e-05, -2.65995350e-05,
          -2.65995350e-05, -2.65995350e-05, -2.65995350e-05,
          -1.32476116e-05, 0., 0., 0., 0., 1.23088039e-05,
          1.49166017e-05, 1.56467854e-06, 1.04311901e-07,
          -5.11128292e-06, -5.63284266e-06, -5.63284266e-06,
          -5.63284266e-06, -5.63284266e-06, -5.63284266e-06,
          -5.63284266e-06, -5.63284266e-06, -5.63284266e-06,
          -5.63284266e-06, -5.63284266e-06, -5.63284266e-06,
          -5.63284266e-06, -5.63284266e-06, -5.63284266e-06,
          -5.63284266e-06, -5.63284266e-06, -5.63284266e-06,
          -5.63284266e-06, -5.63284266e-06, -5.63284266e-06,
          -9.38807091e-07, 0., 0., 0., 0., 7.51045673e-06,
          7.40614496e-06, 0., 0., 0., 0., 0., 0., 0., 0., 0., 0., 0., 0.,
          0., 0., 0., 0., 0., 0., 0., 1.04311901e-07, 0., 1.04311901e-07,
          0., 2.29486182e-06, 0., 0., 0., -8.24064045e-06,
          -3.54660460e-06, 0., 0., 0., 0., 0., 0., 0., 0., 0., 0., 0.,
          0., 0., 0., 0., 0., 0., 0., 0., -1.04311901e-07,
          1.04311901e-07, 0., 1.04311901e-07, 0., 7.92770425e-06,
          1.01182541e-05, 0., 0., -1.85675181e-05, -1.67942162e-05,
          -5.73715442e-06, 0., 1.04311901e-07, 0., 0., 0., 0., 0., 0.,
          -1.04311901e-07, 0., 0., 0., 0., 0., 0., 0., 0., 0., 0., 0.,
          0., 0., 5.21559514e-06, 1.70028397e-05, 2.24270589e-05,
          9.80531877e-06, 0., -1.85675181e-05, -2.65995350e-05,
          -1.55424732e-05, 0., 0., 0., 0., 0., 0., 0., 0., 0., 0., 0.,
          0., 0., 0., 0., 0., 0., 0., 1.04311901e-07, 1.04311901e-07,
          3.12935697e-07, 2.92073310e-06, 1.96106375e-05, 2.65995350e-05,
          2.65995350e-05, 2.65995350e-05, 1.04311901e-07,
          -1.85675181e-05, -2.65995350e-05, -1.55424732e-05,
          -6.25871394e-07, -2.39917358e-06, -2.29486182e-06,
          -5.21559514e-07, 0., 0., 0., 0., 0., 0., -1.35605467e-06,
          -2.39917358e-06, -2.39917358e-06, -2.39917358e-06,
          -2.39917358e-06, -2.39917358e-06, -2.39917358e-06,
          -2.39917358e-06, -1.77330230e-06, 0., 2.60779757e-06,
          2.29486177e-05, 2.62865979e-05, 2.65995350e-05, 2.65995350e-05,
          2.65995350e-05, 0., -1.85675181e-05, -2.65995350e-05,
          -1.55424732e-05, -6.36302593e-06, -2.52434802e-05,
          -2.52434802e-05, 4.27678788e-06, 2.12796276e-05,
          2.12796276e-05, 2.12796276e-05, 2.12796276e-05, 2.12796276e-05,
          2.12796276e-05, 6.46733770e-06, -3.96385212e-06,
          -3.96385212e-06, -3.96385212e-06, -3.96385212e-06,
          -3.96385212e-06, -3.96385212e-06, -3.96385212e-06,
          2.29486182e-06, 2.12796276e-05, 2.18011864e-05, 2.60779743e-05,
          2.65995350e-05, 2.65995350e-05, 2.65995350e-05, 2.65995350e-05,
          0., -1.86718298e-05, -2.65995350e-05, -2.45132960e-05,
          -2.28443059e-05, -2.65995350e-05, -2.65995350e-05,
          -9.49238256e-06, 5.00697115e-06, 5.00697115e-06,
          5.00697115e-06, 5.00697115e-06, 5.00697115e-06, 5.00697115e-06,
          2.08623806e-06, 0., 0., 0., 0., 0., 0., 0., 6.67596169e-06,
          2.65995350e-05, 2.65995350e-05, 2.65995350e-05, 2.65995350e-05,
          2.65995350e-05, 2.65995350e-05, 2.65995350e-05, 0.,
          -1.85675181e-05, -2.65995350e-05, -2.65995350e-05,
          -2.65995350e-05, -2.65995350e-05, -2.65995350e-05,
          -1.32476116e-05, 0., 0., 0., 0., 0., 0., 0., 0., 0., 0., 0.,
          0., 0., 0., 6.67596169e-06, 2.65995350e-05, 2.65995350e-05,
          2.65995350e-05, 2.65995350e-05, 2.65995350e-05, 2.65995350e-05,
          2.65995350e-05, 0., -1.85675181e-05, -2.65995350e-05,
          -2.65995350e-05, -2.65995350e-05, -2.65995350e-05,
          -2.65995350e-05, -1.32476116e-05, 0., 0., 0., 0., 0., 0., 0.,
          0., 0., 0., 0., 0., 0., 0., 6.67596169e-06, 2.65995350e-05,
          2.65995350e-05, 2.65995350e-05, 2.65995350e-05, 2.65995350e-05,
          2.30529295e-05, 1.25174283e-05, 0., -1.85675181e-05,
          -2.65995350e-05, -2.65995350e-05, -2.65995350e-05,
          -2.65995350e-05, -2.65995350e-05, -1.33519234e-05, 0., 0., 0.,
          0., 0., 0., 0., 0., 0., 0., 0., 0., 0., 0., 6.67596169e-06,
          2.65995350e-05, 2.65995350e-05, 2.65995350e-05, 2.65995350e-05,
          2.65995350e-05, 1.99235728e-05, 0., 0., -1.86718298e-05,
          -2.65995350e-05, -2.65995350e-05, -2.64952232e-05,
          -2.65995350e-05, -2.65995350e-05, -1.33519234e-05,
          -1.04311901e-07, 0., 0., 0., 0., 0., 0., 0., 0., 0., 0., 0.,
          0., 0., 6.67596169e-06, 2.65995350e-05, 2.65995350e-05,
          2.65995350e-05, 2.65995350e-05, 2.65995350e-05, 1.99235728e-05,
          0., 0., -1.85675181e-05, -2.65995350e-05, -2.65995350e-05,
          -2.64952232e-05, -2.64952232e-05, -2.65995350e-05,
          -1.33519234e-05, 0., 0., 0., 0., 0., 0., 0., 0., 0., 0., 0.,
          0., 0., 0., 6.67596169e-06, 2.65995350e-05, 2.65995350e-05,
          2.65995350e-05, 2.65995350e-05, 2.65995350e-05, 1.99235728e-05,
          0., 0., -1.85675181e-05, -2.65995350e-05, -2.65995350e-05,
          -2.64952232e-05, -2.64952232e-05, -2.65995350e-05,
          -1.32476116e-05, 0., 0., 0., 0., 0., 0., 0., 0., 0., 0., 0.,
          0., 0., 0., 6.67596169e-06, 2.65995350e-05, 2.65995350e-05,
          2.65995350e-05, 2.65995350e-05, 2.65995350e-05, 1.99235728e-05,
          0., -1.38734822e-05, -2.27399942e-05, -2.65995350e-05,
          -2.65995350e-05, -2.65995350e-05, -2.65995350e-05,
          -2.65995350e-05, -1.32476116e-05, 0., 0., 0., 0., 0., 0., 0.,
          0., 0., 0., 0., 0., 0., 0., 6.67596169e-06, 2.65995350e-05,
          2.65995350e-05, 2.65995350e-05, 2.64952232e-05, 2.64952232e-05,
          1.99235728e-05, 0., -2.65995350e-05, -2.65995350e-05,
          -2.65995350e-05, -2.65995350e-05, -2.65995350e-05,
          -2.65995350e-05, -2.65995350e-05, -1.32476116e-05, 0., 0., 0.,
          0., 0., 0., 0., 0., 0., 0., 0., 0., 0., 0., 6.67596169e-06,
          2.65995350e-05, 2.65995350e-05, 2.65995350e-05, 2.65995350e-05,
          2.65995350e-05, 1.99235728e-05, 0., -2.65995350e-05,
          -2.65995350e-05, -2.65995350e-05, -2.65995350e-05,
          -2.65995350e-05, -2.65995350e-05, -2.65995350e-05,
          -1.32476116e-05, 0., -1.04311901e-07, 0., 0., 0., 0., 0., 0.,
          0., 0., 0., 0., 0., 6.05009018e-06, 1.76287103e-05,
          2.65995350e-05, 2.65995350e-05, 2.65995350e-05, 2.65995350e-05,
          2.65995350e-05, 1.99235728e-05, 0., -2.65995350e-05,
          -2.65995350e-05, -2.65995350e-05, -2.65995350e-05,
          -2.65995350e-05, -2.65995350e-05, -2.58693508e-05,
          -1.27260519e-05, 0., 0., 0., 0., 0., 0., 0., 0., 0., 0., 0.,
          0., 0., 1.10570609e-05, 2.65995350e-05, 2.65995350e-05,
          2.65995350e-05, 2.65995350e-05, 2.65995350e-05, 2.65995350e-05,
          1.99235728e-05, 0., -2.65995350e-05, -2.65995350e-05,
          -2.65995350e-05, -2.65995350e-05, -2.65995350e-05,
          -2.65995350e-05, -1.02225658e-05, -1.56467854e-06, 0., 0., 0.,
          0., 0., 0., 0., 0., 0., 0., 0., 0., 0., 1.10570609e-05,
          2.65995350e-05, 2.65995350e-05, 2.65995350e-05, 2.65995350e-05,
          2.65995350e-05, 2.35744901e-05, 1.46036655e-05, 0.,
          -2.65995350e-05, -2.65995350e-05, -2.65995350e-05,
          -2.65995350e-05, -2.65995350e-05, -2.65995350e-05,
          -7.92770425e-06, 0., 0., -1.04311901e-07, 0., 0., 0., 0., 0.,
          0., 0., 0., -1.04311901e-07, 0., 0., 9.59669433e-06,
          2.39917372e-05, 2.65995350e-05, 2.64952232e-05, 2.65995350e-05,
          2.65995350e-05, 1.55424732e-05, 0., 0., -2.65995350e-05,
          -2.65995350e-05, -2.65995350e-05, -2.65995350e-05,
          -2.65995350e-05, -2.65995350e-05, -1.83588945e-05,
          -1.49166017e-05, -1.49166017e-05, -1.49166017e-05,
          -1.49166017e-05, -4.48541186e-06, 0., 0., 0., -1.04311901e-07,
          0., -7.40614496e-06, -1.49166017e-05, -1.34562351e-05,
          -1.46036655e-06, 1.04311901e-07, 6.78027345e-06,
          2.65995350e-05, 2.65995350e-05, 2.65995350e-05, 2.65995350e-05,
          1.55424732e-05, 0., 0., -2.65995350e-05, -2.65995350e-05,
          -2.65995350e-05, -1.72114633e-05, -3.96385212e-06,
          -3.96385212e-06, -3.96385212e-06, -3.96385212e-06,
          -3.96385212e-06, -3.96385212e-06, -3.96385212e-06,
          7.19752097e-06, 1.19958686e-05, 1.19958686e-05, 1.19958686e-05,
          1.19958686e-05, 1.19958686e-05, 4.06816389e-06,
          -3.96385212e-06, -2.29486182e-06, 1.04311903e-05,
          2.50348558e-06, -9.59669433e-06, -6.67596169e-06,
          -5.63284266e-06, 1.99235728e-05, 2.65995350e-05,
          1.55424732e-05, 0., 0., -2.02365081e-05, -1.04311903e-05,
          -7.71908071e-06, -4.48541186e-06, 1.04311901e-07, 0., 0., 0.,
          0., 0., 0., 0., 0., 0., 0., 0., 0., 0., 0., 0., 0.,
          -3.23366885e-06, -7.71908071e-06, -7.71908071e-06,
          -5.73715442e-06, 1.61683438e-05, 2.47219195e-05,
          1.55424732e-05, 0., 0., 0., 2.81642133e-06, 1.04311903e-06, 0.,
          0., 0., 0., 0., 0., 0., 0., 0., 0., 0., 0., 0., 0., 0., 0., 0.,
          0., 0., 0., 0., 0., -1.13699971e-05, 1.98192606e-06,
          5.63284266e-06, 0., 0., 0., 1.84632063e-05, 1.22044921e-05, 0.,
          0., 0., 0., 0., 0., 0., 0., 0., 0., 0., 0., 0., 0., 0., 0., 0.,
          0., 0., 0., 0., 0., -1.13699971e-05, -2.03408199e-05,
          -1.22044921e-05, 0., 0., 0., 1.41864184e-05, 1.01182541e-05,
          0., 0., 0., 0., 0., 0., 0., 0., 0., 0., 0., 0., 0., 0., 0., 0.,
          0., 0., 0., 0., 0., 0., 0., -1.10570609e-05, -1.88804534e-05,
          -1.41864184e-05, 0., 0., 1.04311901e-07, 7.92770425e-06,
          1.19958686e-05, 1.04311903e-05, -2.29486182e-06,
          -3.96385212e-06, -3.96385212e-06, -3.96385212e-06,
          -3.85954036e-06, -3.96385212e-06, -3.96385212e-06,
          -3.96385212e-06, -3.96385212e-06, -3.96385212e-06,
          -3.96385212e-06, -3.96385212e-06, -3.96385212e-06,
          -3.96385212e-06, -3.96385212e-06, -3.96385212e-06,
          -3.96385212e-06, -3.02504509e-06, 0., 0., 0., 0.,
          -1.10570609e-05, -2.33658648e-05, -1.59597203e-05, 0., 0., 0.,
          0., -1.46036655e-06, -1.34562351e-05, -1.49166017e-05,
          -1.49166017e-05, -1.49166017e-05, -1.48122899e-05,
          -1.49166017e-05, -1.49166017e-05, -1.49166017e-05,
          -1.49166017e-05, -1.49166017e-05, -1.49166017e-05,
          -1.49166017e-05, -1.49166017e-05, -1.49166017e-05,
          -1.49166017e-05, -1.49166017e-05, -1.48122899e-05,
          -1.39777949e-05, 0., 0., 0., 0., -1.10570609e-05,
          -2.65995350e-05, -2.65995350e-05, 0., 0., 0., 0., 0., 0., 0.,
          0., 0., 0., 0., 0., 0., 0., 0., 0., 0., 0., 0., 0., 0.,
          9.59669433e-06, 1.07441256e-05, 0., 1.04311901e-07, 0., 0.,
          -1.10570609e-05, -2.65995350e-05, -2.65995350e-05, 0., 0., 0.,
          0., 0., 0., 0., 0., 0., 0., 0., 0., 0., 0., 0., 0., 0., 0., 0.,
          0., 1.13699971e-05, 2.02365081e-05, 1.16829324e-05,
          -1.04311901e-07, 0., 0., 0., -1.10570609e-05, -2.56607273e-05,
          -2.33658648e-05, 0., 0., 0., 0., 0., 0., 0., 0., 0., 0., 0.,
          0., 0., 0., 0., 0., 0., 0., 0., 0., 1.55424732e-05,
          8.76219929e-06, 5.21559514e-07, -1.04311901e-07, 0., 0., 0.,
          -1.10570609e-05, -1.88804534e-05, -1.04311903e-06, 0., 0., 0.,
          0., 0., 0., 0., 0., 0., 0., 0., 0., 0., 0., 0., 0., 0., 0., 0.,
          0., 1.55424732e-05, 8.03201601e-06, 0., 0., 0., 0., 0.,
          -1.10570609e-05, -1.85675181e-05, 0., 0., 0., 0., 0., 0., 0.,
          0., 0., 0., 0., 0., 0., 0., 0., 0., 0., 0., 0., 0., 0.,
          1.54381614e-05, 7.92770425e-06, 0., 0., 1.04311901e-07, 0., 0.,
          -1.10570609e-05, -1.86718298e-05, 0., 0., 0., 0., 0., 0., 0.,
          0., 0., 0., 0., 0., 0., 0., 0., 0., 0., 0., 0., 0., 0.,
          1.54381614e-05, 7.92770425e-06, 0., 0., 1.04311901e-07, 0., 0.,
          -1.10570609e-05, -1.85675181e-05, 0., 0., 0., 0., 0., 0., 0.,
          0., 0., 0., 0., 0., 0., 0., 0., 0., 0., 0., 0., 0., 0.,
          1.55424732e-05, 8.03201601e-06, 0., 0., 0., 0., 0.,
          -1.10570609e-05, -1.85675181e-05, 0., 0., 0., 0., 0., 0., 0.,
          0., 0., 0., 0., 0., 0., 0., 0., 0., 0., 0., 0., 0., 0.,
          1.54381614e-05, 7.92770425e-06, 0., 0., 0., 0.,
          -1.04311901e-07, -1.11613735e-05, -1.85675181e-05, 0., 0., 0.,
          0., 0., 0., 0., 0., 0., 0., 0., 0., 0., 0., 0., 0., 0., 0., 0.,
          0., 0., 1.55424732e-05, 7.92770425e-06, 0., 0.,
          -1.04311901e-07, 0., 0., -1.10570609e-05, -1.86718298e-05, 0.,
          1.04311901e-07, 0., 0., 0., 0., 0., 0., 0., 0., 0., 0., 0., 0.,
          0., 0., 0., 0., 0., 0., 0., 1.55424732e-05, 8.03201601e-06,
          1.04311901e-07, 1.04311901e-07, 0., 0., 0., -1.10570609e-05,
          -1.85675181e-05, 0., 0., 0., 0., 0., 0., 0., 0., 0., 0., 0.,
          0., 0., 0., 0., 0., 0., 0., 0., 0., 0., 1.55424732e-05,
          8.03201601e-06, 0., 0., 0., 0., 0., -1.10570609e-05,
          -1.85675181e-05, 0., 0., 0., 0., 0., 0., 0., 0., 0., 0., 0.,
          0., 0., 0., 0., 0., 0., 0., 0., 0., 0., 1.55424732e-05,
          8.03201601e-06, 0., 0., 0., 0., -5.11128292e-06,
          -1.61683438e-05, -1.85675181e-05, 0., 0., 0., 0., 0., 0., 0.,
          0., 0., 0., 0., 0., 0., 0., 0., 0., 0., 0., 0., 0., 0.,
          1.55424732e-05, 7.82339248e-06, -1.04311901e-07, 0., 0., 0.,
          -1.55424732e-05, -2.65995350e-05, -1.85675181e-05, 0., 0., 0.,
          0., 5.21559514e-07, 1.35605467e-06, 1.35605467e-06,
          1.35605467e-06, 1.35605467e-06, 1.35605467e-06, 1.35605467e-06,
          1.35605467e-06, 1.35605467e-06, 1.35605467e-06, 1.35605467e-06,
          1.35605467e-06, 1.35605467e-06, 1.35605467e-06, 1.35605467e-06,
          1.35605467e-06, 1.35605467e-06, 1.60640320e-05, 8.03201601e-06,
          0., 0., 0., 0., -1.55424732e-05, -2.65995350e-05,
          -1.85675181e-05, 0., 0., 0., 0., 9.80531877e-06,
          2.31572412e-05, 2.31572412e-05, 2.31572412e-05, 2.31572412e-05,
          2.31572412e-05, 2.31572412e-05, 2.31572412e-05, 2.31572412e-05,
          2.31572412e-05, 2.31572412e-05, 2.31572412e-05, 2.31572412e-05,
          2.31572412e-05, 2.31572412e-05, 2.31572412e-05, 2.31572412e-05,
          2.45132960e-05, 7.71908071e-06, 0., 0., 0., 0.,
          -1.55424732e-05, -2.65995350e-05, -1.85675181e-05, 0., 0., 0.,
          1.19958686e-05, 1.60640320e-05, 3.23366885e-06, 3.23366885e-06,
          3.23366885e-06, 3.23366885e-06, 3.23366885e-06, 3.23366885e-06,
          3.23366885e-06, 3.23366885e-06, 3.23366885e-06, 3.23366885e-06,
          3.23366885e-06, 3.23366885e-06, 3.23366885e-06, 3.23366885e-06,
          3.23366885e-06, 3.23366885e-06, 3.23366885e-06, 9.38807091e-07,
          0., 0., 0., -1.04311901e-07, -1.55424732e-05, -2.65995350e-05,
          -1.85675181e-05, 0., 0., 1.25174283e-05, 1.29346754e-05,
          5.21559514e-06, 0., 0., 0., 0., 0., 0., 0., 0., 0., 0., 0., 0.,
          0., 0., 0., 0., 0., 0., 0., 0., 0., 0., -1.55424732e-05,
          -2.65995350e-05, -1.85675181e-05, 0., 1.30389872e-05,
          1.27260519e-05, 5.84146619e-06, 0., 0., 0., 0., 0., 0., 0., 0.,
          0., 0., 0., 0., 0., 0., 0., 0., 0., 0., 0., 0., 0., 0., 0.,
          -1.55424732e-05, -1.90890769e-05, -8.24064045e-06, 0.,
          2.65995350e-05, 8.03201601e-06, 0., 0., 0., 0., 0., 0., 0., 0.,
          0., 0., 0., 0., 0., 0., 0., 0., 0., 0., 0., 0., 0.,
          -8.34495211e-07, -8.55357575e-06, -9.28375903e-06,
          -1.94020140e-05, -1.32476116e-05, 0., 0., 2.65995350e-05,
          8.03201601e-06, 0., 0., 0., 0., 0., 0., 0., 0., 0., 0., 0., 0.,
          0., 0., 0., 0., 0., 0., 0., 0., 0., -2.19054982e-06,
          -2.37831136e-05, -2.08623806e-05, -2.02365081e-05,
          -1.01182541e-05, 0., 0., 2.65995350e-05, 8.03201601e-06, 0.,
          0., 0., 0., 0., 0., 0., 0., 0., 0., 0., 0., 0., 0., 0., 0., 0.,
          0., 0., 0., 0., -2.19054982e-06, -2.16968747e-05,
          -2.60779757e-06, 0., 0., 0., 0. ]
      - [ 0., 1.37269344e-05, 1.52854518e-05, 3.53663381e-06,
          -1.49857362e-06, -1.37269344e-05, -1.52854518e-05,
          -1.52854518e-05, -1.52255079e-05, -1.52854518e-05,
          -1.52854518e-05, -1.52854518e-05, -1.52854518e-05,
          -1.52854518e-05, -1.52854518e-05, -1.52854518e-05,
          -1.52854518e-05, -1.52854518e-05, -1.52854518e-05,
          -1.52854518e-05, -1.52854518e-05, -1.52854518e-05,
          -1.52854518e-05, -8.69172709e-06, 0., -4.55566396e-06,
          -1.52854518e-05, -7.61275396e-06, 0., 0., 0., 1.37269344e-05,
          1.52854518e-05, 8.63178411e-06, -8.63178411e-06,
          -1.49257939e-05, -1.52854518e-05, -1.52854518e-05,
          -1.52854518e-05, -1.52854518e-05, -1.52854518e-05,
          -1.52854518e-05, -1.52854518e-05, -1.52854518e-05,
          -1.52854518e-05, -1.52854518e-05, -1.52854518e-05,
          -1.52854518e-05, -1.52854518e-05, -1.52854518e-05,
          -1.52854518e-05, -1.52854518e-05, -9.71075769e-06,
          -2.33777496e-06, 0., -1.25880183e-06, -6.71360976e-06,
          -7.61275396e-06, 0., 0., 0., 1.37269344e-05, 1.06698444e-05,
          4.25594908e-06, -4.85537885e-06, -1.22283609e-05,
          -1.52854518e-05, -1.52854518e-05, -1.52854518e-05,
          -1.52854518e-05, -1.52854518e-05, -1.52854518e-05,
          -1.52854518e-05, -1.52854518e-05, -1.52854518e-05,
          -1.52854518e-05, -1.52854518e-05, -1.52854518e-05,
          -1.52854518e-05, -1.52854518e-05, -1.52854518e-05,
          -1.05499585e-05, -3.41674786e-06, 5.99429484e-08, 0.,
          5.99429484e-08, -3.59657679e-06, -7.61275396e-06, 0., 0., 0.,
          8.99144197e-06, 4.31589206e-06, 0., 0., -6.11418045e-06,
          -1.28277907e-05, -1.52854518e-05, -1.52854518e-05,
          -1.52854518e-05, -1.52854518e-05, -1.52854518e-05,
          -1.52854518e-05, -1.52854518e-05, -1.52854518e-05,
          -1.52854518e-05, -1.52854518e-05, -1.52854518e-05,
          -1.52854518e-05, -1.52854518e-05, -1.16888741e-05,
          -4.19600610e-06, 0., 5.99429484e-08, 0., 5.99429484e-08,
          -3.59657679e-06, -7.61275396e-06, 0., 0., 0., 3.05709023e-06,
          0., 0., 0., 5.99429484e-08, -8.69172709e-06, -1.52854518e-05,
          -1.52854518e-05, -1.52854518e-05, -1.52854518e-05,
          -1.52854518e-05, -1.52854518e-05, -1.52854518e-05,
          -1.52854518e-05, -1.52854518e-05, -1.52854518e-05,
          -1.52854518e-05, -1.52854518e-05, -1.52854518e-05,
          -5.63463709e-06, 0., 0., 0., 0., 0., -5.99429484e-07,
          -5.51475114e-06, 5.99429484e-08, 0., 0., 3.05709023e-06, 0.,
          0., 0., 0., -8.69172709e-06, -1.52854518e-05, -1.52854518e-05,
          -1.52854518e-05, -1.52854518e-05, -1.52854518e-05,
          -1.52854518e-05, -1.52854518e-05, -1.52854518e-05,
          -1.52854518e-05, -1.52854518e-05, -1.52854518e-05,
          -1.52854518e-05, -1.52255079e-05, -5.57469411e-06, 0.,
          5.99429484e-08, 5.99429484e-08, 1.79828845e-07, 1.67840244e-06,
          7.67269739e-06, 0., 5.99429484e-08, 0., 5.99429484e-08,
          3.05709023e-06, 0., 0., 0., 0., -8.63178411e-06,
          -1.52255079e-05, -1.52854518e-05, -1.52854518e-05,
          -1.52854518e-05, -1.52854518e-05, -1.52854518e-05,
          -1.52854518e-05, -1.52854518e-05, -1.52854518e-05,
          -1.52854518e-05, -1.52854518e-05, -1.52854518e-05,
          -1.52854518e-05, -5.57469411e-06, 0., 0., 0., 1.49857362e-06,
          1.31874485e-05, 1.15090461e-05, 0., 0., 0., 9.95052869e-06,
          4.07612015e-06, 0., 0., 0., 0., -8.69172709e-06,
          -9.17127090e-06, -3.05709023e-06, -3.05709023e-06,
          -3.05709023e-06, -3.05709023e-06, -3.05709023e-06,
          -3.05709023e-06, -3.05709023e-06, -3.05709023e-06,
          -3.05709023e-06, -3.05709023e-06, -3.05709023e-06,
          -3.05709023e-06, 6.59372427e-06, 1.22283609e-05,
          1.22283609e-05, 1.22283609e-05, 1.25280758e-05, 1.49857369e-05,
          1.16888741e-05, 0., 0., 0., 1.52854518e-05, 4.55566396e-06, 0.,
          0., 0., 0., -8.69172709e-06, -7.61275396e-06, 0., 0., 0., 0.,
          0., 0., 0., 0., 0., 0., 0., 5.03520732e-06, 1.22883039e-05,
          1.52854518e-05, 1.52854518e-05, 1.52854518e-05, 1.52854518e-05,
          1.52854518e-05, 1.16888741e-05, 0., 0., 0., 1.52854518e-05,
          4.61560694e-06, 0., 0., 0., 0., -8.69172709e-06,
          -7.61275396e-06, 0., 0., 0., 0., 0., 0., 0., 0., 0., 0., 0.,
          1.07297874e-05, 1.52854518e-05, 1.52854518e-05, 1.52854518e-05,
          1.52854518e-05, 1.52854518e-05, 1.39667063e-05, 8.33206923e-06,
          0., 0., 0., 1.52854518e-05, 4.61560694e-06, 0., 0., 0., 0.,
          -8.69172709e-06, -7.61275396e-06, 0., 0., 0., 0., 0., 0., 0.,
          0., 0., 0., 0., 1.06698444e-05, 1.52854518e-05, 1.52854518e-05,
          1.52854518e-05, 1.52854518e-05, 1.52854518e-05, 1.06698444e-05,
          0., 0., 0., 0., 1.52854518e-05, 4.61560694e-06, 0., 0., 0., 0.,
          -8.69172709e-06, -7.67269739e-06, 0., 0., 0., 0., 0., 0., 0.,
          0., 0., 0., 0., 1.06698444e-05, 1.52854518e-05, 1.52854518e-05,
          1.52854518e-05, 1.52854518e-05, 1.52854518e-05, 1.06698444e-05,
          0., 0., 0., 0., 1.52854518e-05, 4.55566396e-06, 0., 0.,
          5.99429484e-08, 0., -8.69172709e-06, -7.67269739e-06,
          -5.99429484e-08, 0., 0., 0., 0., 0., 0., 0., 0., 0., 0.,
          1.06698444e-05, 1.52854518e-05, 1.52854518e-05, 1.52854518e-05,
          1.52854518e-05, 1.52854518e-05, 1.06698444e-05, 0., 0., 0., 0.,
          1.52854518e-05, 4.61560694e-06, 0., 0., 5.99429484e-08,
          5.99429484e-08, -8.69172709e-06, -7.67269739e-06, 0., 0., 0.,
          0., 0., 0., 0., 0., 0., 0., 0., 1.06698444e-05, 1.52854518e-05,
          1.52854518e-05, 1.52854518e-05, 1.52255079e-05, 1.52854518e-05,
          1.06698444e-05, 0., 0., 0., 0., 1.52854518e-05, 4.61560694e-06,
          0., 0., 5.99429484e-08, -3.71646274e-06, -1.12692742e-05,
          -7.61275396e-06, 0., 0., 0., 0., 0., 0., 0., 0., 0., 0., 0.,
          1.06698444e-05, 1.52854518e-05, 1.52854518e-05, 1.52255079e-05,
          1.52255079e-05, 1.52854518e-05, 1.06698444e-05, 0., 0., 0., 0.,
          7.31303953e-06, 2.21788900e-06, 0., 0., 0., -9.71075769e-06,
          -1.52854518e-05, -7.61275396e-06, 0., 0., 0., 0., 0., 0., 0.,
          0., 0., 0., 0., 1.06698444e-05, 1.52854518e-05, 1.52854518e-05,
          1.52854518e-05, 1.52854518e-05, 1.52854518e-05, 1.06698444e-05,
          0., 0., 0., 0., 0., 0., 0., 0., 0., -9.71075769e-06,
          -1.52854518e-05, -7.61275396e-06, 0., 0., 0., 0., 0., 0., 0.,
          0., 0., 0., 0., 1.06698444e-05, 1.52854518e-05, 1.52854518e-05,
          1.52854518e-05, 1.52854518e-05, 1.52854518e-05, 1.06698444e-05,
          0., 0., 0., 0., 0., 0., 0., 0., 0., -9.71075769e-06,
          -1.52854518e-05, -7.61275396e-06, 0., -5.99429484e-08, 0., 0.,
          0., 0., 0., 0., 0., 0., 0., 1.07297874e-05, 1.52854518e-05,
          1.52854518e-05, 1.52854518e-05, 1.52854518e-05, 1.52854518e-05,
          1.07297874e-05, 0., 0., 0., 0., 0., 0., 0., 0., 0.,
          -9.71075769e-06, -1.48658510e-05, -7.31303953e-06, 0., 0., 0.,
          0., 0., 0., 0., 0., 0., 0., 0., 3.53663381e-06, 1.15090461e-05,
          1.52854518e-05, 1.52854518e-05, 1.52854518e-05, 1.52854518e-05,
          1.06698444e-05, 0., 0., 0., 0., 0., 0., 0., 0., 0.,
          -4.91532182e-06, 1.61845958e-06, 6.59372427e-06,
          7.49286846e-06, 7.49286846e-06, 7.49286846e-06, 7.49286846e-06,
          7.49286846e-06, 7.49286846e-06, 7.49286846e-06, 7.49286846e-06,
          7.49286846e-06, 7.49286846e-06, 7.49286846e-06, 2.21788900e-06,
          9.65081472e-06, 1.52854518e-05, 1.52854518e-05, 1.52854518e-05,
          1.52854518e-05, 1.07297874e-05, 0., 0., 0., 0., 0., 0., 0., 0.,
          0., 0., 1.07297874e-05, 1.52854518e-05, 1.52854518e-05,
          1.52255079e-05, 1.52854518e-05, 1.52854518e-05, 1.52854518e-05,
          1.52854518e-05, 1.52854518e-05, 1.52854518e-05, 1.52854518e-05,
          1.52854518e-05, 1.52255079e-05, 7.91246930e-06, 1.13891601e-05,
          1.52854518e-05, 1.52854518e-05, 1.52854518e-05, 1.34871625e-05,
          7.37298251e-06, 0., 0., 0., 0., -1.97811733e-06,
          -1.79828845e-07, 0., 0., 0., 0., 4.73549289e-06,
          6.71360976e-06, 6.71360976e-06, 6.71360976e-06, 6.71360976e-06,
          1.27079047e-05, 1.52854518e-05, 1.52854518e-05, 1.52854518e-05,
          1.52255079e-05, 1.52854518e-05, 1.10295023e-05, 6.71360976e-06,
          7.55281144e-06, 1.44462501e-05, 1.52854518e-05, 1.52854518e-05,
          1.44462501e-05, 8.45195518e-06, 0., 0., 0., 0., 0.,
          -1.45061931e-05, -1.43863076e-06, 0., 0., 0., 0., 0., 0., 0.,
          0., 0., 6.41389533e-06, 9.17127090e-06, 9.17127090e-06,
          9.17127090e-06, 9.17127090e-06, 9.17127090e-06, 4.61560694e-06,
          0., 9.59087174e-07, 8.27212625e-06, 9.17127090e-06,
          9.17127090e-06, 2.87726152e-06, -5.03520732e-06,
          -5.99429484e-07, 0., 0., 0., 0., -1.16289311e-05,
          -4.19600610e-07, 0., 0., 5.99429484e-08, 0., 0., 0., 0., 0.,
          0., 0., 0., 0., 0., 0., 0., 0., 0., 0., 0., 0., 0.,
          -6.65366724e-06, -1.41465352e-05, -4.85537885e-06,
          -1.07897301e-06, 0., 0., 0., 0., -4.19600610e-06,
          -8.99144197e-07, 0., 0., 0., 0., 0., 0., 0., 0., 0., 0., 0.,
          0., 0., 0., 0., 0., 0., 0., 0., 0., -2.69743259e-06,
          -9.59087174e-06, -1.52854518e-05, -5.45480816e-06,
          -5.99429484e-07, 0., 0., 0., -8.39201221e-07, -7.79258301e-07,
          -6.29400938e-06, -1.91817435e-06, 0., 0., 0., 0., 0., 0., 0.,
          0., 0., 0., 0., 0., 0., 0., 0., 0., 0., 0., 0.,
          -5.63463709e-06, -1.52854518e-05, -1.44462501e-05,
          -7.01332465e-06, 0., 0., 0., 0., -7.61275396e-06,
          -1.52854518e-05, -7.07326762e-06, -3.53663381e-06,
          -3.53663381e-06, -3.53663381e-06, -3.53663381e-06,
          -3.53663381e-06, -3.53663381e-06, -3.53663381e-06,
          -3.53663381e-06, -3.53663381e-06, -3.53663381e-06,
          -3.53663381e-06, -3.53663381e-06, -3.53663381e-06,
          -3.53663381e-06, -1.07897301e-06, 0., 0., 0., 0.,
          -5.63463709e-06, -1.52854518e-05, -1.52854518e-05,
          -1.34272195e-05, -8.15224030e-06, 0., 0., 0., -3.05709023e-06,
          -6.11418045e-06, -7.01332465e-06, -1.43263642e-05,
          -1.52854518e-05, -1.52854518e-05, -1.52854518e-05,
          -1.52255079e-05, -1.52854518e-05, -1.52854518e-05,
          -1.52854518e-05, -1.52854518e-05, -1.52854518e-05,
          -1.52854518e-05, -1.52854518e-05, -1.52854518e-05,
          -1.52854518e-05, -4.61560694e-06, 0., 0., 0., 0.,
          -5.63463709e-06, -1.52854518e-05, -1.52854518e-05,
          -1.52854518e-05, -1.34272195e-05, -9.17127090e-06, 0., 0., 0.,
          0., -8.39201221e-07, -7.73264037e-06, -8.57184114e-06,
          -8.57184114e-06, -8.57184114e-06, -8.51189816e-06,
          -8.57184114e-06, -8.57184114e-06, -8.57184114e-06,
          -8.57184114e-06, -8.57184114e-06, -8.57184114e-06,
          -8.57184114e-06, -8.57184114e-06, -8.57184114e-06,
          2.09800305e-06, 6.71360976e-06, 6.71360976e-06, 3.35680488e-06,
          0., -5.63463709e-06, -1.52854518e-05, -1.52854518e-05,
          -1.52854518e-05, -1.52854518e-05, -1.52854518e-05, 0., 0., 0.,
          0., 0., 0., 0., 0., 0., 0., 0., 0., 0., 0., 0., 0., 0., 0.,
          8.09229732e-06, 1.38468204e-05, 1.52854518e-05, 1.52854518e-05,
          7.67269739e-06, 0., -5.57469411e-06, -1.52854518e-05,
          -1.52854518e-05, -1.52854518e-05, -1.52854518e-05,
          -1.52854518e-05, 0., 0., 0., 0., 0., 0., 0., 0., 0., 0., 0.,
          0., 0., 0., 0., 0., 0., 0., 1.16888741e-05, 1.52854518e-05,
          1.52854518e-05, 1.40266493e-05, 6.71360976e-06, 0.,
          -5.63463709e-06, -1.52854518e-05, -1.52854518e-05,
          -1.52854518e-05, -1.47459650e-05, -1.34272195e-05, 0., 0., 0.,
          0., 0., 0., 0., 0., 0., 0., 0., 0., 0., 0., 0., 0., 0., 0.,
          1.16888741e-05, 1.52854518e-05, 1.52854518e-05, 5.03520732e-06,
          2.99714742e-07, 0., -5.63463709e-06, -1.52854518e-05,
          -1.52854518e-05, -1.52854518e-05, -1.08496733e-05,
          -5.99429484e-07, 0., 0., 0., 0., 0., 0., 0., 0., 0., 0., 0.,
          0., 0., 0., 0., 0., 0., 0., 1.16888741e-05, 1.52854518e-05,
          1.52854518e-05, 4.61560694e-06, 0., 0., -5.63463709e-06,
          -1.52854518e-05, -1.52854518e-05, -1.52854518e-05,
          -1.06698444e-05, 0., 0., 0., 0., 0., 0., 0., 0., 0., 0., 0.,
          0., 0., 0., 0., 0., 0., 0., 0., 1.16888741e-05, 1.52854518e-05,
          1.52854518e-05, 4.55566396e-06, 0., 0., -5.57469411e-06,
          -1.52854518e-05, -1.52854518e-05, -1.52854518e-05,
          -1.07297874e-05, 0., 0., 0., 0., 0., 0., 0., 0., 0., 0., 0.,
          0., 0., 0., 0., 0., 0., 0., 0., 1.16888741e-05, 1.52854518e-05,
          1.52854518e-05, 4.61560694e-06, 0., 0., -5.57469411e-06,
          -1.52854518e-05, -1.52854518e-05, -1.52854518e-05,
          -1.06698444e-05, 0., 0., 0., 0., 0., 0., 0., 0., 0., 0., 0.,
          0., 0., 0., 0., 0., 0., 0., 0., 1.16888741e-05, 1.52854518e-05,
          1.52854518e-05, 4.61560694e-06, 0., 0., -5.63463709e-06,
          -1.52854518e-05, -1.52854518e-05, -1.52854518e-05,
          -1.06698444e-05, 0., 0., 0., 0., 0., 0., 0., 0., 0., 0., 0.,
          0., 0., 0., 0., 0., 0., 0., 0., 1.16888741e-05, 1.52854518e-05,
          1.52854518e-05, 4.61560694e-06, 0., 0., -5.63463709e-06,
          -1.52854518e-05, -1.52854518e-05, -1.52854518e-05,
          -1.06698444e-05, 0., 0., 0., 0., 0., 0., 0., 0., 0., 0., 0.,
          0., 0., 0., 0., 0., 0., 0., 0., 1.16888741e-05, 1.52854518e-05,
          1.52854518e-05, 4.55566396e-06, 0., 0., -5.63463709e-06,
          -1.52854518e-05, -1.52854518e-05, -1.52854518e-05,
          -1.07297874e-05, 0., 0., 0., 0., 0., 0., 0., 0., 0., 0., 0.,
          0., 0., 0., 0., 0., 0., 0., 0., 1.16888741e-05, 1.52854518e-05,
          1.52854518e-05, 4.61560694e-06, 5.99429484e-08, 5.99429484e-08,
          -5.63463709e-06, -1.52854518e-05, -1.52854518e-05,
          -1.52854518e-05, -1.06698444e-05, 0., -5.99429484e-08, 0., 0.,
          0., 0., 0., 0., 0., 0., 0., 0., 0., 0., 0., 0., 0., 0., 0.,
          1.16888741e-05, 1.52854518e-05, 1.52854518e-05, 4.61560694e-06,
          0., 0., -5.63463709e-06, -1.52854518e-05, -1.52854518e-05,
          -1.52854518e-05, -1.06698444e-05, 5.99429484e-08, 0., 0., 0.,
          0., 0., 0., 0., 0., 0., 0., 0., 0., 0., 0., 0., 0., 0., 0.,
          1.16888741e-05, 1.52854518e-05, 1.52854518e-05, 4.61560694e-06,
          0., 0., -5.63463709e-06, -1.52854518e-05, -1.52854518e-05,
          -1.52854518e-05, -1.06698444e-05, 0., 0., 0., 0., 0., 0., 0.,
          0., 0., 0., 0., 0., 0., 0., 0., 0., 0., 0., 0., 1.16888741e-05,
          1.52854518e-05, 1.52854518e-05, 4.55566396e-06, 0.,
          -3.53663381e-06, -1.07297874e-05, -1.52854518e-05,
          -1.52854518e-05, -1.52854518e-05, -1.06698444e-05,
          5.99429484e-08, 0., 0., 0., 0., 0., 0., 0., 0., 0., 0., 0., 0.,
          0., 0., 0., 0., 0., 0., 1.16888741e-05, 1.52854518e-05,
          1.52854518e-05, 4.61560694e-06, 0., -4.31589206e-06,
          -1.18687030e-05, -1.52854518e-05, -1.52854518e-05,
          -1.52854518e-05, -1.06698444e-05, 5.99429484e-08, 0., 0., 0.,
          -1.79828845e-07, -5.99429484e-07, -5.99429484e-07,
          -5.99429484e-07, -5.99429484e-07, -5.99429484e-07,
          -5.99429484e-07, -5.99429484e-07, -5.99429484e-07,
          -5.99429484e-07, -5.99429484e-07, -5.99429484e-07,
          -5.99429484e-07, -5.99429484e-07, -5.99429484e-07,
          9.11132793e-06, 1.39067633e-05, 1.46860220e-05, 4.43577801e-06,
          0., 0., -4.67554992e-06, -1.27079047e-05, -1.27079047e-05,
          -1.27079047e-05, -8.33206923e-06, 0., 0., 0., 0.,
          -4.01617763e-06, -1.34272195e-05, -1.34272195e-05,
          -1.34272195e-05, -1.34272195e-05, -1.34272195e-05,
          -1.34272195e-05, -1.34272195e-05, -1.34272195e-05,
          -1.34272195e-05, -1.34272195e-05, -1.34272195e-05,
          -1.34272195e-05, -1.34272195e-05, -1.34272195e-05,
          -1.33073345e-05, -2.69743259e-06, 1.85823137e-06,
          5.39486507e-07, 0., 0., -5.99429484e-08, -1.19885897e-07,
          -1.19885897e-07, -1.19885897e-07, 2.93720427e-06, 0., 0., 0.,
          -5.51475114e-06, -1.22883039e-05, -1.52854518e-05,
          -1.52854518e-05, -1.52854518e-05, -1.52854518e-05,
          -1.52854518e-05, -1.52854518e-05, -1.52854518e-05,
          -1.52854518e-05, -1.52854518e-05, -1.52854518e-05,
          -1.52854518e-05, -1.52854518e-05, -1.52854518e-05,
          -1.52854518e-05, -1.52854518e-05, -1.32473915e-05,
          -1.24081898e-05, -5.39486518e-06, 0., 0., 0., 0., 0., 0.,
          4.31589206e-06, 1.24081898e-05, 0., -5.99429450e-06,
          -1.19286460e-05, -1.52854518e-05, -1.52854518e-05,
          -1.52854518e-05, -1.52854518e-05, -1.52854518e-05,
          -1.52854518e-05, -1.52854518e-05, -1.52854518e-05,
          -1.52854518e-05, -1.52854518e-05, -1.52854518e-05,
          -1.52854518e-05, -1.52854518e-05, -1.52854518e-05,
          -1.52854518e-05, -1.52854518e-05, -1.52854518e-05,
          -1.52854518e-05, -1.20485320e-05, -9.65081472e-06,
          -5.45480816e-06, 0., 0., 0., 4.31589206e-06, 1.05499585e-05,
          1.52854518e-05, 0., -1.06698444e-05, -1.52854518e-05,
          -1.52854518e-05, -1.52854518e-05, -1.52854518e-05,
          -1.52854518e-05, -1.52854518e-05, -1.52854518e-05,
          -1.52854518e-05, -1.52854518e-05, -1.52854518e-05,
          -1.52854518e-05, -1.52854518e-05, -1.52854518e-05,
          -1.52854518e-05, -1.52854518e-05, -1.52854518e-05,
          -1.52854518e-05, -1.52854518e-05, -1.52854518e-05,
          -1.52854518e-05, -1.52854518e-05, -1.16289311e-05,
          -4.37583503e-06, 0., 0., 7.67269739e-06, 1.52854518e-05,
          1.52854518e-05, 0., -1.06698444e-05, -1.52854518e-05,
          -1.52854518e-05, -1.52854518e-05, -1.52854518e-05,
          -1.52854518e-05, -1.52854518e-05, -1.52854518e-05,
          -1.52854518e-05, -1.52854518e-05, -1.52854518e-05,
          -1.52854518e-05, -1.52854518e-05, -1.52854518e-05,
          -1.52854518e-05, -1.52854518e-05, -1.52854518e-05,
          -1.52854518e-05, -1.52854518e-05, -1.52854518e-05,
          -1.52854518e-05, -1.52854518e-05, -1.52854518e-05,
          -1.08496733e-05, 4.19600610e-07, 3.65651977e-06,
          9.47098579e-06, 1.48658510e-05, 1.11493882e-05, 0.,
          -1.06698444e-05, -1.52854518e-05, -1.52854518e-05,
          -1.52854518e-05, -1.52854518e-05, -1.52854518e-05,
          -1.52854518e-05, -1.52854518e-05, -1.52854518e-05,
          -1.52854518e-05, -1.52854518e-05, -1.52854518e-05,
          -1.52854518e-05, -1.52854518e-05, -1.52854518e-05,
          -1.52854518e-05, -1.52854518e-05, -1.52854518e-05,
          -1.52854518e-05, -1.52854518e-05, -1.52854518e-05,
          -1.52854518e-05, -1.52854518e-05, -1.37269344e-05,
          3.05709023e-06, 1.52854518e-05, 1.52854518e-05, 1.37269344e-05,
          0. ]
   uncompressed_sv_total: 3
   uncompressed_support_vectors:
      - [ 0., 0., 0., 0., 64., 234., 21., 0., 1., 1., 0., 0., 0., 0., 0.,
          0., 0., 0., 0., 0., 0., 0., 0., 0., 0., 0., 0., 0., 0., 0., 0.,
          0., 118., 201., 215., 250., 206., 201., 201., 201., 201., 201.,
          201., 201., 201., 201., 201., 201., 201., 201., 201., 201.,
          201., 201., 201., 201., 201., 118., 0., 0., 0., 0., 149., 255.,
          255., 255., 255., 255., 255., 255., 255., 255., 255., 255.,
          255., 255., 255., 255., 255., 255., 255., 255., 254., 255.,
          255., 255., 255., 149., 0., 0., 0., 0., 149., 255., 255., 255.,
          255., 255., 255., 255., 255., 255., 255., 255., 255., 255.,
          255., 255., 255., 255., 255., 255., 254., 255., 255., 255.,
          255., 203., 97., 0., 0., 0., 94., 200., 255., 255., 255., 255.,
          255., 255., 255., 255., 254., 255., 255., 255., 255., 255.,
          255., 255., 255., 255., 255., 255., 255., 255., 255., 255.,
          215., 94., 0., 0., 0., 106., 255., 255., 255., 255., 255.,
          255., 255., 255., 255., 255., 255., 255., 255., 255., 255.,
          255., 255., 255., 255., 255., 255., 255., 255., 255., 255.,
          255., 1., 0., 0., 106., 249., 232., 232., 249., 255., 255.,
          255., 255., 255., 255., 242., 232., 232., 232., 232., 232.,
          232., 232., 238., 255., 255., 255., 255., 255., 255., 255., 0.,
          0., 0., 106., 194., 13., 13., 194., 255., 255., 255., 255.,
          255., 255., 113., 13., 13., 13., 13., 13., 13., 13., 73., 255.,
          255., 255., 255., 255., 255., 255., 0., 0., 0., 20., 36., 0.,
          0., 36., 48., 48., 48., 48., 48., 48., 20., 0., 0., 0., 0., 0.,
          0., 0., 64., 255., 255., 255., 255., 255., 255., 255., 0., 0.,
          0., 0., 0., 0., 0., 0., 0., 0., 0., 0., 0., 0., 0., 0., 0., 0.,
          0., 0., 0., 0., 64., 255., 255., 255., 255., 255., 255., 255.,
          0., 0., 0., 0., 0., 0., 0., 0., 0., 0., 0., 0., 0., 0., 0., 0.,
          0., 0., 0., 0., 0., 0., 64., 255., 255., 255., 255., 255.,
          221., 120., 0., 0., 0., 0., 0., 0., 0., 0., 0., 0., 0., 0., 0.,
          0., 0., 0., 0., 0., 0., 0., 0., 0., 64., 255., 255., 255.,
          255., 255., 191., 0., 0., 0., 0., 0., 0., 0., 0., 0., 0., 0.,
          0., 0., 0., 0., 0., 0., 0., 0., 0., 0., 0., 0., 64., 255.,
          255., 255., 255., 255., 191., 0., 0., 0., 0., 0., 0., 0., 0.,
          0., 0., 0., 0., 0., 0., 0., 0., 0., 0., 0., 0., 0., 0., 0.,
          64., 255., 255., 255., 255., 255., 191., 0., 0., 0., 0., 0.,
          0., 0., 0., 0., 0., 0., 0., 0., 0., 0., 0., 0., 0., 0., 0., 0.,
          0., 0., 64., 255., 255., 255., 255., 255., 191., 0., 0., 0.,
          0., 0., 0., 0., 0., 0., 0., 0., 0., 0., 0., 0., 0., 0., 0., 0.,
          0., 0., 0., 0., 64., 255., 255., 255., 254., 254., 191., 0.,
          0., 0., 0., 0., 0., 0., 0., 0., 0., 0., 0., 0., 0., 0., 0., 0.,
          0., 0., 0., 0., 0., 0., 64., 255., 255., 255., 255., 255.,
          191., 0., 0., 0., 0., 0., 0., 0., 0., 0., 0., 0., 0., 0., 0.,
          0., 0., 0., 0., 0., 0., 0., 0., 58., 169., 255., 255., 255.,
          255., 255., 191., 0., 0., 0., 0., 0., 0., 0., 0., 0., 0., 0.,
          0., 0., 0., 0., 0., 0., 0., 0., 0., 0., 0., 106., 255., 255.,
          255., 255., 255., 255., 191., 0., 0., 0., 0., 0., 0., 0., 0.,
          0., 0., 0., 0., 0., 0., 0., 0., 0., 0., 0., 0., 0., 0., 106.,
          255., 255., 255., 255., 255., 226., 140., 0., 0., 0., 0., 0.,
          0., 0., 0., 0., 0., 0., 0., 0., 0., 0., 0., 0., 0., 0., 0., 0.,
          0., 92., 230., 255., 255., 255., 255., 149., 0., 0., 0., 0.,
          0., 0., 0., 0., 0., 0., 0., 0., 0., 0., 0., 0., 0., 0., 0., 0.,
          0., 0., 0., 1., 65., 255., 255., 255., 255., 149., 0., 0., 0.,
          0., 0., 90., 217., 217., 217., 217., 217., 217., 217., 217.,
          217., 217., 217., 217., 217., 217., 217., 217., 217., 126.,
          10., 38., 38., 201., 255., 149., 0., 0., 0., 136., 181., 212.,
          255., 255., 255., 255., 255., 255., 255., 255., 255., 255.,
          255., 255., 255., 255., 255., 255., 255., 224., 181., 181.,
          181., 236., 255., 149., 0., 0., 0., 191., 255., 255., 255.,
          255., 255., 255., 255., 255., 255., 255., 255., 255., 255.,
          255., 255., 255., 255., 255., 255., 255., 255., 255., 255.,
          146., 110., 64., 0., 0., 0., 191., 255., 255., 255., 255.,
          255., 255., 255., 255., 255., 255., 255., 255., 255., 255.,
          255., 255., 255., 255., 255., 255., 255., 255., 255., 146.,
          46., 0., 0., 0., 0., 136., 224., 255., 255., 255., 255., 255.,
          255., 255., 255., 255., 255., 255., 255., 255., 255., 255.,
          255., 255., 255., 255., 255., 255., 255., 255., 149., 43., 0.,
          0., 0., 1., 127., 217., 217., 217., 217., 217., 217., 217.,
          217., 217., 217., 217., 217., 217., 217., 217., 217., 217.,
          217., 217., 226., 255., 255., 255., 255., 149., 0., 0., 0., 0.,
          0., 0., 0., 0., 0., 0., 0., 0., 0., 0., 0., 0., 0., 0., 0., 0.,
          0., 0., 0., 1., 65., 255., 255., 255., 255., 149., 0., 0., 0.,
          0., 0., 0., 0., 0., 0., 0., 0., 0., 0., 0., 0., 0., 0., 0., 0.,
          0., 0., 0., 0., 92., 230., 255., 255., 255., 255., 149., 0.,
          0., 0., 0., 0., 0., 0., 0., 0., 0., 0., 0., 0., 0., 0., 0., 0.,
          0., 0., 0., 0., 0., 109., 215., 255., 254., 255., 255., 255.,
          149., 0., 0., 0., 0., 0., 0., 0., 0., 0., 0., 0., 0., 0., 0.,
          0., 0., 0., 0., 0., 0., 0., 0., 149., 255., 255., 254., 255.,
          255., 255., 149., 0., 0., 0., 0., 0., 0., 0., 0., 0., 0., 0.,
          0., 0., 0., 0., 0., 0., 0., 0., 0., 0., 0., 149., 255., 255.,
          255., 255., 255., 255., 149., 0., 0., 0., 0., 0., 0., 0., 0.,
          0., 0., 0., 0., 0., 0., 0., 0., 0., 0., 0., 0., 0., 0., 148.,
          255., 255., 255., 255., 255., 255., 149., 0., 0., 0., 0., 0.,
          0., 0., 0., 0., 0., 0., 0., 0., 0., 0., 0., 0., 0., 0., 0., 0.,
          0., 148., 254., 255., 255., 255., 255., 255., 149., 0., 0., 0.,
          0., 0., 0., 0., 0., 0., 0., 0., 0., 0., 0., 0., 0., 0., 0., 0.,
          0., 0., 0., 149., 255., 255., 255., 255., 255., 255., 149., 0.,
          0., 0., 0., 0., 0., 0., 0., 0., 0., 0., 0., 0., 0., 0., 0., 0.,
          0., 0., 0., 0., 0., 148., 254., 255., 255., 255., 255., 254.,
          148., 0., 0., 0., 0., 0., 0., 0., 0., 0., 0., 0., 0., 0., 0.,
          0., 0., 0., 0., 0., 0., 0., 0., 149., 255., 255., 255., 254.,
          255., 255., 149., 0., 0., 1., 0., 0., 0., 0., 0., 0., 0., 0.,
          0., 0., 0., 0., 0., 0., 0., 0., 0., 0., 0., 149., 255., 255.,
          255., 255., 255., 255., 149., 0., 0., 1., 0., 0., 0., 0., 0.,
          0., 0., 0., 0., 0., 0., 0., 0., 0., 0., 0., 0., 0., 0., 149.,
          255., 255., 255., 255., 255., 255., 149., 0., 0., 0., 0., 0.,
          0., 0., 0., 0., 0., 0., 0., 0., 0., 0., 0., 0., 0., 0., 0., 0.,
          0., 149., 255., 255., 255., 255., 255., 206., 100., 0., 0., 0.,
          0., 0., 0., 0., 0., 0., 0., 0., 0., 0., 0., 0., 0., 0., 0., 0.,
          0., 0., 0., 149., 254., 254., 255., 255., 255., 106., 0., 0.,
          0., 0., 0., 0., 5., 13., 13., 13., 13., 13., 13., 13., 13.,
          13., 13., 13., 13., 13., 13., 13., 13., 154., 255., 255., 255.,
          255., 255., 106., 0., 0., 0., 0., 0., 0., 97., 232., 232.,
          232., 232., 232., 232., 232., 232., 232., 232., 232., 232.,
          232., 232., 232., 232., 245., 255., 255., 255., 255., 255.,
          106., 0., 0., 0., 0., 0., 115., 221., 255., 255., 255., 255.,
          255., 255., 255., 255., 255., 255., 255., 255., 255., 255.,
          255., 255., 255., 255., 255., 255., 255., 254., 106., 0., 0.,
          0., 0., 120., 216., 255., 255., 255., 255., 255., 255., 255.,
          255., 255., 255., 255., 255., 255., 255., 255., 255., 255.,
          255., 255., 255., 255., 255., 255., 106., 0., 0., 0., 125.,
          222., 255., 255., 255., 255., 255., 255., 255., 255., 255.,
          255., 255., 255., 255., 255., 255., 255., 255., 255., 255.,
          255., 255., 255., 255., 255., 106., 0., 0., 0., 255., 255.,
          255., 255., 255., 255., 255., 255., 255., 255., 255., 255.,
          255., 255., 255., 255., 255., 255., 255., 255., 255., 255.,
          255., 247., 173., 166., 69., 0., 0., 0., 255., 255., 255.,
          255., 255., 255., 255., 255., 255., 255., 255., 255., 255.,
          255., 255., 255., 255., 255., 255., 255., 255., 255., 255.,
          234., 21., 0., 0., 0., 0., 0., 255., 255., 255., 255., 255.,
          255., 255., 255., 255., 255., 255., 255., 255., 255., 255.,
          255., 255., 255., 255., 255., 255., 255., 255., 234., 21., 0.,
          0., 0., 0., 0. ]
      - [ 0., 229., 255., 59., 0., 0., 0., 0., 1., 0., 0., 0., 0., 0.,
          0., 0., 0., 0., 0., 0., 0., 0., 0., 110., 255., 179., 0., 0.,
          0., 0., 0., 229., 255., 202., 56., 0., 0., 0., 0., 0., 0., 0.,
          0., 0., 0., 0., 0., 0., 0., 0., 0., 0., 93., 216., 255., 234.,
          143., 0., 0., 0., 0., 229., 255., 255., 174., 51., 0., 0., 0.,
          0., 0., 0., 0., 0., 0., 0., 0., 0., 0., 0., 0., 79., 197.,
          255., 255., 255., 195., 0., 0., 0., 0., 229., 255., 255., 255.,
          153., 41., 0., 0., 0., 0., 0., 0., 0., 0., 0., 0., 0., 0., 0.,
          60., 185., 255., 255., 255., 255., 195., 0., 0., 0., 0., 229.,
          255., 255., 255., 255., 110., 0., 0., 0., 0., 0., 0., 0., 0.,
          0., 0., 0., 0., 0., 161., 255., 255., 255., 255., 255., 195.,
          0., 1., 0., 0., 229., 255., 255., 255., 255., 110., 0., 0., 0.,
          0., 0., 0., 0., 0., 0., 0., 0., 0., 1., 162., 255., 255., 255.,
          255., 255., 195., 0., 1., 0., 1., 229., 255., 255., 255., 255.,
          110., 0., 0., 0., 0., 0., 0., 0., 0., 0., 0., 0., 0., 0., 162.,
          255., 255., 255., 255., 255., 195., 0., 0., 0., 166., 246.,
          255., 255., 255., 255., 110., 0., 0., 0., 0., 0., 0., 0., 0.,
          0., 0., 0., 0., 0., 161., 255., 255., 255., 255., 255., 195.,
          0., 0., 0., 255., 255., 255., 255., 255., 255., 110., 0., 0.,
          0., 0., 0., 0., 0., 0., 0., 0., 0., 0., 84., 205., 255., 255.,
          255., 255., 255., 195., 0., 0., 0., 255., 255., 255., 255.,
          255., 255., 110., 0., 0., 0., 0., 0., 0., 0., 0., 0., 0., 0.,
          0., 179., 255., 255., 255., 255., 255., 233., 139., 0., 0., 0.,
          255., 255., 255., 255., 255., 255., 110., 0., 0., 0., 0., 0.,
          0., 0., 0., 0., 0., 0., 0., 178., 255., 255., 255., 255., 255.,
          178., 0., 0., 0., 0., 255., 255., 255., 255., 255., 255., 110.,
          0., 0., 0., 0., 0., 0., 0., 0., 0., 0., 0., 0., 178., 255.,
          255., 255., 255., 255., 178., 0., 0., 0., 0., 255., 255., 255.,
          255., 255., 255., 110., 0., 0., 0., 0., 0., 0., 0., 0., 0., 0.,
          0., 0., 178., 255., 255., 255., 255., 255., 178., 0., 0., 0.,
          0., 255., 255., 255., 255., 255., 255., 110., 0., 0., 0., 0.,
          0., 0., 0., 0., 0., 0., 0., 0., 178., 255., 255., 255., 254.,
          255., 178., 0., 0., 0., 0., 255., 255., 255., 255., 255., 192.,
          67., 0., 0., 0., 0., 0., 0., 0., 0., 0., 0., 0., 0., 178.,
          255., 255., 254., 254., 255., 178., 0., 0., 0., 0., 255., 255.,
          255., 255., 255., 93., 0., 0., 0., 0., 0., 0., 0., 0., 0., 0.,
          0., 0., 0., 178., 255., 255., 255., 255., 255., 178., 0., 0.,
          0., 0., 255., 255., 255., 255., 255., 93., 0., 0., 0., 0., 0.,
          0., 0., 0., 0., 0., 0., 0., 0., 178., 255., 255., 255., 255.,
          255., 178., 0., 0., 0., 0., 255., 255., 255., 255., 255., 93.,
          0., 0., 0., 0., 0., 0., 0., 0., 0., 0., 0., 0., 0., 179., 255.,
          255., 255., 255., 255., 179., 0., 0., 0., 0., 255., 255., 255.,
          255., 255., 93., 0., 0., 0., 0., 0., 0., 0., 0., 0., 0., 0.,
          0., 0., 59., 192., 255., 255., 255., 255., 178., 0., 0., 0.,
          0., 255., 255., 255., 255., 255., 173., 125., 125., 125., 125.,
          125., 125., 125., 125., 125., 125., 125., 125., 125., 37.,
          161., 255., 255., 255., 255., 179., 0., 0., 0., 0., 255., 255.,
          255., 255., 255., 255., 255., 255., 255., 255., 255., 255.,
          255., 255., 255., 255., 255., 255., 255., 132., 190., 255.,
          255., 255., 226., 123., 0., 0., 0., 0., 222., 252., 255., 255.,
          255., 255., 255., 255., 255., 255., 255., 255., 255., 255.,
          255., 255., 255., 255., 255., 255., 255., 255., 255., 241.,
          141., 0., 0., 0., 0., 0., 13., 231., 255., 255., 255., 255.,
          255., 255., 255., 255., 255., 255., 255., 255., 255., 255.,
          255., 255., 255., 255., 255., 255., 255., 150., 8., 0., 0., 0.,
          0., 0., 0., 229., 255., 255., 255., 255., 255., 255., 255.,
          255., 255., 255., 255., 255., 255., 255., 255., 255., 255.,
          255., 255., 255., 255., 144., 0., 0., 0., 0., 0., 0., 0., 94.,
          230., 255., 255., 255., 255., 255., 255., 255., 255., 255.,
          255., 255., 255., 255., 255., 255., 255., 255., 255., 255.,
          255., 210., 95., 0., 0., 0., 0., 0., 0., 0., 125., 150., 223.,
          255., 255., 255., 255., 255., 255., 255., 255., 255., 255.,
          255., 255., 255., 255., 255., 255., 255., 255., 255., 161., 0.,
          0., 0., 0., 0., 0., 0., 0., 0., 137., 196., 196., 196., 196.,
          196., 196., 196., 196., 196., 196., 196., 196., 196., 196.,
          237., 255., 255., 255., 255., 161., 0., 0., 0., 0., 0., 0., 0.,
          0., 0., 0., 0., 0., 0., 0., 0., 0., 0., 0., 0., 0., 0., 0., 0.,
          0., 178., 255., 255., 255., 255., 161., 0., 0., 0., 0., 0., 0.,
          0., 0., 0., 0., 0., 0., 0., 0., 0., 0., 0., 0., 0., 0., 0., 0.,
          0., 0., 178., 255., 255., 255., 255., 161., 0., 0., 0., 0., 0.,
          0., 0., 0., 0., 0., 0., 0., 0., 0., 0., 0., 0., 0., 0., 0., 0.,
          0., 0., 135., 231., 255., 255., 255., 255., 161., 0., 0., 0.,
          0., 0., 0., 0., 0., 0., 0., 0., 0., 0., 0., 0., 0., 0., 0., 0.,
          0., 0., 0., 0., 195., 255., 255., 255., 255., 255., 161., 0.,
          0., 0., 0., 0., 0., 0., 0., 0., 0., 0., 0., 0., 0., 0., 0., 0.,
          0., 0., 0., 0., 0., 0., 195., 255., 255., 255., 255., 255.,
          161., 0., 0., 0., 0., 0., 0., 0., 0., 0., 0., 0., 0., 0., 0.,
          0., 0., 0., 0., 0., 0., 0., 0., 0., 195., 255., 255., 255.,
          255., 255., 161., 0., 0., 0., 0., 0., 0., 0., 0., 0., 0., 0.,
          0., 0., 0., 0., 0., 0., 0., 0., 0., 0., 0., 0., 195., 255.,
          255., 255., 255., 255., 161., 0., 0., 0., 0., 0., 0., 0., 0.,
          0., 0., 0., 0., 0., 0., 0., 0., 0., 0., 0., 0., 0., 0., 0.,
          195., 255., 255., 255., 255., 255., 161., 0., 0., 0., 0., 0.,
          0., 0., 0., 0., 0., 0., 0., 0., 0., 0., 0., 0., 0., 0., 0., 0.,
          0., 0., 195., 255., 255., 255., 255., 255., 161., 0., 0., 0.,
          0., 0., 0., 0., 0., 0., 0., 0., 0., 0., 0., 0., 0., 0., 0., 0.,
          0., 0., 0., 0., 195., 255., 255., 255., 255., 255., 161., 0.,
          0., 0., 0., 0., 0., 0., 0., 0., 0., 0., 0., 0., 0., 0., 0., 0.,
          0., 0., 0., 0., 0., 0., 195., 255., 255., 255., 255., 255.,
          161., 0., 0., 0., 0., 0., 0., 0., 0., 0., 0., 0., 0., 0., 0.,
          0., 0., 0., 0., 0., 0., 0., 0., 0., 195., 255., 255., 255.,
          255., 255., 161., 0., 0., 0., 0., 0., 0., 0., 0., 0., 0., 0.,
          0., 0., 0., 0., 0., 0., 0., 0., 0., 0., 0., 0., 195., 255.,
          255., 255., 255., 255., 161., 0., 0., 0., 0., 1., 0., 0., 0.,
          0., 0., 0., 0., 0., 0., 0., 0., 0., 0., 0., 0., 0., 0., 0.,
          195., 255., 255., 255., 255., 255., 161., 0., 0., 0., 0., 0.,
          0., 0., 0., 0., 0., 0., 0., 0., 0., 0., 0., 0., 0., 0., 0., 0.,
          0., 0., 195., 255., 255., 255., 255., 196., 76., 0., 0., 0.,
          0., 1., 0., 0., 0., 0., 0., 0., 0., 0., 0., 0., 0., 0., 0., 0.,
          0., 0., 0., 0., 195., 255., 255., 255., 255., 183., 57., 0.,
          0., 0., 0., 1., 0., 0., 0., 0., 0., 0., 0., 0., 0., 0., 0., 0.,
          0., 0., 0., 0., 0., 0., 162., 242., 255., 255., 255., 255.,
          177., 43., 43., 43., 39., 0., 0., 0., 0., 0., 0., 0., 0., 0.,
          0., 0., 0., 0., 0., 0., 0., 0., 0., 0., 2., 179., 255., 255.,
          255., 255., 254., 253., 253., 253., 227., 0., 0., 0., 0., 0.,
          0., 0., 0., 0., 0., 0., 0., 0., 0., 0., 0., 0., 0., 0., 0.,
          34., 48., 165., 255., 255., 255., 255., 255., 255., 250., 207.,
          0., 0., 0., 0., 0., 0., 0., 0., 0., 0., 0., 0., 0., 0., 0., 0.,
          0., 0., 0., 0., 0., 54., 94., 164., 255., 255., 255., 255.,
          255., 255., 0., 0., 0., 0., 0., 0., 0., 0., 0., 0., 0., 0., 0.,
          0., 0., 0., 0., 0., 0., 0., 0., 0., 0., 61., 182., 255., 255.,
          255., 255., 255., 0., 0., 0., 0., 0., 0., 0., 0., 0., 0., 0.,
          0., 0., 0., 0., 0., 0., 0., 0., 0., 0., 0., 0., 0., 68., 207.,
          255., 255., 248., 186., 0., 0., 0., 0., 0., 0., 0., 0., 0., 0.,
          0., 0., 0., 0., 0., 0., 0., 0., 0., 0., 0., 0., 0., 0., 0.,
          76., 255., 255., 229., 0. ]
      - [ 0., 0., 0., 0., 25., 229., 255., 255., 255., 255., 255., 255.,
          255., 255., 255., 255., 255., 255., 255., 255., 255., 255.,
          255., 255., 255., 255., 255., 127., 0., 0., 0., 0., 0., 58.,
          200., 249., 255., 255., 255., 255., 255., 255., 255., 255.,
          255., 255., 255., 255., 255., 255., 255., 255., 255., 255.,
          255., 255., 255., 127., 0., 0., 0., 0., 77., 184., 255., 255.,
          255., 255., 255., 255., 255., 255., 255., 255., 255., 255.,
          255., 255., 255., 255., 255., 255., 254., 254., 255., 254.,
          255., 127., 0., 0., 0., 79., 183., 255., 255., 255., 255.,
          255., 255., 255., 255., 255., 255., 255., 255., 255., 255.,
          255., 255., 255., 255., 255., 255., 254., 255., 254., 255.,
          127., 0., 0., 0., 178., 255., 255., 255., 254., 255., 255.,
          255., 255., 255., 255., 255., 255., 255., 255., 255., 255.,
          255., 255., 255., 255., 255., 255., 255., 255., 205., 92., 0.,
          0., 0., 178., 255., 255., 255., 255., 255., 255., 255., 255.,
          255., 255., 255., 255., 255., 255., 255., 255., 255., 255.,
          255., 255., 254., 254., 252., 227., 67., 0., 0., 0., 0., 178.,
          255., 255., 255., 255., 254., 254., 255., 255., 255., 255.,
          255., 255., 255., 255., 255., 255., 255., 255., 255., 255.,
          255., 255., 230., 35., 3., 0., 0., 0., 0., 178., 255., 255.,
          255., 255., 255., 153., 51., 51., 51., 51., 51., 51., 51., 51.,
          51., 51., 51., 51., 51., 51., 51., 51., 46., 5., 0., 0., 0.,
          0., 0., 179., 255., 255., 255., 255., 255., 127., 0., 0., 0.,
          0., 0., 0., 0., 0., 0., 0., 0., 0., 0., 0., 0., 0., 0., 0., 0.,
          0., 0., 0., 0., 178., 255., 255., 255., 255., 255., 127., 0.,
          0., 0., 0., 0., 0., 0., 0., 0., 0., 0., 0., 0., 0., 0., 0., 0.,
          0., 0., 0., 0., 0., 0., 178., 255., 255., 255., 255., 255.,
          127., 0., 0., 0., 0., 0., 0., 0., 0., 0., 0., 0., 0., 0., 0.,
          0., 0., 0., 0., 0., 0., 0., 0., 0., 178., 255., 255., 255.,
          255., 255., 128., 0., 0., 0., 0., 0., 0., 0., 0., 0., 0., 0.,
          0., 0., 0., 0., 0., 0., 0., 0., 0., 0., 0., 0., 179., 255.,
          255., 254., 255., 255., 128., 1., 0., 0., 0., 0., 0., 0., 0.,
          0., 0., 0., 0., 0., 0., 0., 0., 0., 0., 0., 0., 0., 0., 0.,
          178., 255., 255., 254., 254., 255., 128., 0., 0., 0., 0., 0.,
          0., 0., 0., 0., 0., 0., 0., 0., 0., 0., 0., 0., 0., 0., 0., 0.,
          0., 0., 178., 255., 255., 254., 254., 255., 127., 0., 0., 0.,
          0., 0., 0., 0., 0., 0., 0., 0., 0., 0., 0., 0., 0., 0., 0., 0.,
          0., 0., 0., 133., 218., 255., 255., 255., 255., 255., 127., 0.,
          0., 0., 0., 0., 0., 0., 0., 0., 0., 0., 0., 0., 0., 0., 0., 0.,
          0., 0., 0., 0., 0., 255., 255., 255., 255., 255., 255., 255.,
          127., 0., 0., 0., 0., 0., 0., 0., 0., 0., 0., 0., 0., 0., 0.,
          0., 0., 0., 0., 0., 0., 0., 0., 255., 255., 255., 255., 255.,
          255., 255., 127., 0., 1., 0., 0., 0., 0., 0., 0., 0., 0., 0.,
          0., 0., 0., 0., 0., 0., 0., 0., 0., 0., 0., 255., 255., 255.,
          255., 255., 255., 248., 122., 0., 0., 0., 0., 0., 0., 0., 0.,
          0., 0., 0., 0., 0., 0., 0., 0., 0., 0., 0., 0., 0., 0., 255.,
          255., 255., 255., 255., 255., 98., 15., 0., 0., 0., 0., 0., 0.,
          0., 0., 0., 0., 0., 0., 0., 0., 0., 0., 0., 0., 0., 0., 0., 0.,
          255., 255., 255., 255., 255., 255., 76., 0., 0., 1., 0., 0.,
          0., 0., 0., 0., 0., 0., 1., 0., 0., 0., 0., 0., 1., 0., 0., 0.,
          0., 0., 255., 255., 255., 255., 255., 255., 176., 143., 143.,
          143., 143., 43., 0., 0., 0., 1., 0., 71., 143., 129., 14., 0.,
          0., 0., 0., 0., 0., 0., 0., 0., 255., 255., 255., 255., 255.,
          255., 255., 255., 255., 255., 255., 148., 102., 102., 102.,
          102., 102., 178., 255., 239., 117., 102., 102., 102., 92., 10.,
          0., 0., 0., 0., 194., 236., 255., 255., 254., 255., 255., 255.,
          255., 255., 255., 255., 255., 255., 255., 255., 255., 255.,
          255., 255., 255., 255., 255., 255., 236., 81., 18., 0., 0., 0.,
          0., 164., 245., 255., 255., 255., 255., 255., 255., 255., 255.,
          255., 255., 255., 255., 255., 255., 255., 255., 255., 255.,
          255., 255., 255., 255., 255., 91., 10., 0., 0., 0., 14., 138.,
          255., 255., 255., 255., 255., 255., 255., 255., 255., 255.,
          255., 255., 255., 255., 255., 255., 255., 255., 255., 255.,
          255., 255., 255., 241., 117., 0., 0., 0., 0., 127., 255., 255.,
          255., 255., 255., 255., 255., 255., 255., 255., 255., 255.,
          255., 255., 255., 255., 255., 255., 255., 255., 255., 255.,
          255., 255., 224., 136., 0., 0., 0., 51., 102., 117., 239.,
          255., 255., 255., 254., 255., 255., 255., 255., 255., 255.,
          255., 255., 255., 255., 255., 255., 255., 255., 255., 255.,
          255., 255., 224., 153., 0., 0., 0., 0., 14., 129., 143., 143.,
          143., 142., 143., 143., 143., 143., 143., 143., 143., 143.,
          143., 143., 143., 143., 199., 255., 255., 255., 255., 255.,
          255., 255., 0., 0., 0., 0., 0., 0., 0., 0., 0., 0., 0., 0., 0.,
          0., 0., 0., 0., 0., 0., 0., 0., 0., 127., 255., 254., 255.,
          255., 255., 255., 255., 0., 0., 0., 0., 0., 0., 0., 0., 0., 0.,
          0., 0., 0., 0., 0., 0., 0., 0., 0., 0., 0., 21., 143., 255.,
          255., 255., 255., 255., 246., 224., 0., 0., 0., 0., 0., 0., 0.,
          0., 0., 0., 0., 0., 0., 0., 0., 0., 0., 0., 0., 0., 0., 171.,
          250., 255., 255., 255., 255., 255., 181., 10., 0., 0., 0., 0.,
          0., 0., 0., 0., 0., 0., 0., 0., 0., 0., 0., 0., 0., 0., 0., 0.,
          0., 178., 255., 255., 255., 255., 255., 255., 178., 0., 0., 0.,
          0., 0., 0., 0., 0., 0., 0., 0., 0., 0., 0., 0., 0., 0., 0., 0.,
          0., 0., 0., 179., 255., 255., 254., 255., 255., 255., 179., 0.,
          0., 0., 0., 0., 0., 0., 0., 0., 0., 0., 0., 0., 0., 0., 0., 0.,
          0., 0., 0., 0., 0., 178., 255., 255., 254., 255., 255., 255.,
          178., 0., 0., 0., 0., 0., 0., 0., 0., 0., 0., 0., 0., 0., 0.,
          0., 0., 0., 0., 0., 0., 0., 0., 178., 255., 255., 255., 255.,
          255., 255., 178., 0., 0., 0., 0., 0., 0., 0., 0., 0., 0., 0.,
          0., 0., 0., 0., 0., 0., 0., 0., 0., 0., 0., 178., 255., 255.,
          255., 255., 255., 255., 178., 0., 0., 0., 0., 0., 0., 0., 0.,
          0., 0., 0., 0., 0., 0., 0., 0., 0., 0., 0., 0., 0., 0., 179.,
          255., 255., 255., 255., 255., 255., 179., 0., 0., 0., 0., 0.,
          0., 0., 0., 0., 0., 0., 0., 0., 0., 0., 0., 0., 0., 0., 0., 0.,
          0., 178., 254., 254., 255., 255., 255., 255., 178., 0., 1., 0.,
          0., 0., 0., 0., 0., 0., 0., 0., 0., 0., 0., 0., 0., 0., 0., 0.,
          0., 0., 0., 178., 255., 255., 255., 255., 255., 255., 178., 0.,
          0., 0., 0., 0., 0., 0., 0., 0., 0., 0., 0., 0., 0., 0., 0., 0.,
          0., 0., 0., 0., 0., 178., 255., 255., 255., 255., 255., 255.,
          178., 0., 0., 0., 0., 0., 0., 0., 0., 0., 0., 0., 0., 0., 0.,
          0., 0., 0., 0., 0., 0., 0., 0., 179., 255., 255., 255., 255.,
          255., 255., 178., 0., 0., 0., 0., 0., 0., 0., 0., 0., 0., 0.,
          0., 0., 0., 0., 0., 0., 0., 0., 0., 0., 0., 178., 255., 255.,
          255., 255., 255., 255., 178., 0., 0., 0., 0., 3., 10., 10.,
          10., 10., 10., 10., 10., 10., 10., 10., 10., 10., 10., 10.,
          10., 10., 10., 181., 255., 255., 255., 255., 255., 255., 178.,
          0., 0., 0., 0., 67., 224., 224., 224., 224., 224., 224., 224.,
          224., 224., 224., 224., 224., 224., 224., 224., 224., 224.,
          246., 255., 255., 255., 255., 255., 255., 178., 0., 0., 0.,
          92., 205., 255., 255., 255., 255., 255., 255., 255., 255.,
          255., 255., 255., 255., 255., 255., 255., 255., 255., 255.,
          255., 255., 255., 255., 255., 255., 178., 0., 0., 100., 199.,
          255., 255., 255., 255., 255., 255., 255., 255., 255., 255.,
          255., 255., 255., 255., 255., 255., 255., 255., 255., 255.,
          255., 255., 255., 255., 183., 79., 0., 0., 178., 255., 255.,
          255., 255., 255., 255., 255., 255., 255., 255., 255., 255.,
          255., 255., 255., 255., 255., 255., 255., 255., 255., 255.,
          255., 255., 255., 127., 0., 0., 0., 178., 255., 255., 255.,
          255., 255., 255., 255., 255., 255., 255., 255., 255., 255.,
          255., 255., 255., 255., 255., 255., 255., 255., 255., 249.,
          200., 194., 97., 0., 0., 0., 178., 255., 255., 255., 255.,
          255., 255., 255., 255., 255., 255., 255., 255., 255., 255.,
          255., 255., 255., 255., 255., 255., 255., 255., 229., 25., 0.,
          0., 0., 0. ]
   decision_functions:
      -
         sv_count: 1
         rho: 2.3744677261549632e-01
         alpha: [ 1. ]
         index: [ 0 ]
      -
         sv_count: 1
         rho: -1.2143323715080845e-01
         alpha: [ 1. ]
         index: [ 1 ]
      -
         sv_count: 1
         rho: -3.2625638916878452e-01
         alpha: [ 1. ]
         index: [ 2 ]
